
\data\
ngram 1=942
ngram 2=27053

\1-grams:
-1.506155	</s>
-99	<s>	-2.402845
-3.22894	<unk>
-2.294062	Syl_0	-1.124522
-2.746897	Syl_1	-1.140034
-2.294062	Syl_10	-1.219347
-2.548823	Syl_100	-1.123765
-3.894058	Syl_101	-1.553875
-4.042573	Syl_102	-1.125487
-3.143236	Syl_103	-0.8351981
-3.412987	Syl_104	-0.9883431
-2.870486	Syl_105	-1.153136
-2.729331	Syl_106	-1.393108
-2.572161	Syl_107	-1.508087
-2.658044	Syl_108	-1.131128
-2.814663	Syl_109	-1.290303
-2.075324	Syl_11	-1.69495
-3.272267	Syl_110	-1.378801
-3.622475	Syl_111	-1.097646
-3.190353	Syl_112	-1.095515
-2.934558	Syl_113	-1.279459
-3.622475	Syl_114	-1.149022
-3.22894	Syl_115
-2.480622	Syl_116	-0.9684248
-3.894058	Syl_117	-0.7250866
-3.894058	Syl_118	-0.4471465
-3.22894	Syl_119
-2.475794	Syl_12	-1.511817
-3.336952	Syl_120	-1.164616
-3.695605	Syl_121	-0.4746927
-3.622475	Syl_122	-0.7871201
-2.729331	Syl_123	-1.173004
-2.696196	Syl_124	-1.349219
-2.516011	Syl_125	-1.23922
-3.080947	Syl_126	-0.8673959
-3.336952	Syl_127	-1.103461
-3.783593	Syl_128	-1.132262
-3.215979	Syl_129	-1.338246
-2.80431	Syl_13	-1.156378
-2.609703	Syl_130	-1.782924
-2.99363	Syl_131	-1.288252
-4.31224	Syl_132	-0.9018229
-4.31224	Syl_133	-1.68702
-3.062023	Syl_134	-1.224238
-2.978092	Syl_135	-1.759675
-2.836139	Syl_136	-1.845422
-3.100734	Syl_137	-1.414771
-3.100734	Syl_138	-1.121713
-3.215979	Syl_139	-2.164787
-2.672905	Syl_14	-1.234782
-3.45666	Syl_140	-1.333888
-3.100734	Syl_141	-1.248696
-3.080947	Syl_142	-1.861807
-2.934558	Syl_143	-1.09658
-2.96309	Syl_144	-1.19553
-3.062023	Syl_145	-1.250947
-3.783593	Syl_146	-1.356102
-2.934558	Syl_147	-1.032494
-3.45666	Syl_148	-1.500505
-2.636664	Syl_149	-0.8301775
-2.313446	Syl_15	-1.387351
-3.695605	Syl_150	-0.8814494
-3.121465	Syl_151	-0.9588912
-3.412987	Syl_152	-1.143196
-2.738025	Syl_153	-0.8202648
-3.894058	Syl_154	-1.040822
-3.143236	Syl_155	-1.402729
-2.894992	Syl_156	-1.239897
-3.303406	Syl_157	-1.221702
-2.894992	Syl_158	-1.284742
-2.978092	Syl_159	-1.231151
-2.510775	Syl_16	-1.462798
-3.894058	Syl_160	-0.7293941
-2.814663	Syl_161	-1.401576
-2.665411	Syl_162	-1.222875
-3.100734	Syl_163	-1.067892
-3.336952	Syl_164	-1.386021
-3.783593	Syl_165	-1.3868
-2.495437	Syl_166	-1.488748
-2.774656	Syl_167	-1.168137
-2.548823	Syl_168	-1.407373
-2.696196	Syl_169	-1.02693
-3.783593	Syl_17	-1.209423
-3.336952	Syl_170	-0.9978551
-3.559902	Syl_171	-1.026478
-3.143236	Syl_172	-1.194165
-3.190353	Syl_173	-1.130606
-3.080947	Syl_174	-1.146303
-2.80431	Syl_175	-1.290321
-2.554541	Syl_176	-1.266133
-3.062023	Syl_177	-1.361517
-3.303406	Syl_178	-1.126847
-2.275507	Syl_179	-1.353342
-2.510775	Syl_18	-1.105399
-3.303406	Syl_180	-1.418012
-3.412987	Syl_181	-1.468891
-2.475794	Syl_182	-1.239649
-3.303406	Syl_183	-1.299194
-3.894058	Syl_184	-1.763062
-4.042573	Syl_185	-1.543451
-2.836139	Syl_186	-1.404124
-3.121465	Syl_187	-1.258113
-2.704246	Syl_188	-1.40016
-2.572161	Syl_189	-1.149964
-3.783593	Syl_19	-1.652952
-2.720807	Syl_190	-1.401677
-3.100734	Syl_191	-1.485153
-2.6508	Syl_192	-1.296608
-2.907784	Syl_193	-1.325068
-3.695605	Syl_194	-1.169728
-2.825268	Syl_195	-1.176121
-3.043889	Syl_196	-1.452953
-3.22894	Syl_197
-3.45666	Syl_198	-0.8784552
-2.665411	Syl_199	-1.083071
-3.143236	Syl_2	-1.30024
-3.166156	Syl_20	-1.171392
-3.009746	Syl_200	-1.429049
-2.836139	Syl_201	-1.235374
-3.373308	Syl_202	-1.247928
-2.50049	Syl_203	-1.34948
-2.746897	Syl_204	-1.113767
-2.35867	Syl_205	-1.705952
-2.774656	Syl_206	-1.419733
-2.80431	Syl_207	-1.360583
-2.894992	Syl_208	-1.269222
-2.665411	Syl_209	-1.148662
-2.643675	Syl_21	-1.228455
-3.50522	Syl_210	-1.146206
-3.190353	Syl_211	-1.225122
-2.96309	Syl_212	-1.03901
-3.243211	Syl_213	-1.668186
-3.100734	Syl_214	-1.040576
-3.336952	Syl_215	-1.23926
-4.270042	Syl_216	-1.199133
-3.22894	Syl_217
-3.894058	Syl_218	-1.461903
-3.45666	Syl_219	-0.9628469
-2.978092	Syl_22	-1.340486
-3.166156	Syl_220	-1.692064
-3.100734	Syl_221	-1.264159
-3.009746	Syl_222	-1.395104
-3.412987	Syl_223	-1.496118
-2.96309	Syl_224	-1.312182
-3.121465	Syl_225	-1.119343
-3.062023	Syl_226	-1.472209
-3.695605	Syl_227	-1.604367
-2.784317	Syl_228	-1.218161
-2.320104	Syl_229	-1.537715
-4.042573	Syl_23	-0.5192228
-2.847289	Syl_230	-1.312777
-3.062023	Syl_231	-1.241364
-2.738025	Syl_232	-1.431441
-3.143236	Syl_233	-1.472548
-2.590526	Syl_234	-1.258328
-2.738025	Syl_235	-1.721337
-3.695605	Syl_236	-1.234876
-2.96309	Syl_237	-1.169342
-3.272267	Syl_238	-1.086791
-3.062023	Syl_239	-1.323154
-2.688293	Syl_24	-1.292342
-4.270042	Syl_240	-0.9930899
-2.814663	Syl_241	-1.398137
-3.559902	Syl_242	-1.312674
-3.50522	Syl_243	-1.364417
-3.215979	Syl_244	-1.490927
-2.578197	Syl_245	-1.52202
-3.080947	Syl_246	-1.370211
-2.643675	Syl_247	-1.495337
-3.100734	Syl_248	-1.124366
-3.272267	Syl_249	-1.3743
-2.392989	Syl_25	-1.097141
-2.794199	Syl_250	-1.400172
-3.272267	Syl_251	-1.195809
-3.166156	Syl_252	-1.531091
-3.215979	Syl_253	-0.9775399
-3.50522	Syl_254	-1.162396
-3.062023	Syl_255	-1.163672
-3.100734	Syl_256	-1.186251
-3.080947	Syl_257	-1.160018
-4.270042	Syl_258	-2.041972
-2.794199	Syl_259	-1.525378
-2.629766	Syl_26	-1.407628
-3.336952	Syl_260	-1.525541
-2.907784	Syl_261	-1.439992
-2.978092	Syl_262	-1.221123
-3.100734	Syl_263	-1.313684
-2.978092	Syl_264	-1.015298
-3.121465	Syl_265	-1.440655
-3.121465	Syl_266	-1.124399
-3.190353	Syl_267	-1.335196
-2.765205	Syl_268	-1.432496
-3.243211	Syl_269	-1.204506
-2.275507	Syl_27	-1.468358
-3.143236	Syl_270	-1.729645
-3.50522	Syl_271	-1.304425
-4.637465	Syl_272	-1.461215
-2.712448	Syl_273	-1.334832
-3.190353	Syl_274	-1.356521
-4.042573	Syl_275	-0.5212386
-2.680531	Syl_276	-1.149233
-3.143236	Syl_277	-0.8195561
-3.272267	Syl_278	-1.201432
-2.537608	Syl_279	-1.376553
-2.80431	Syl_28	-1.562169
-2.680531	Syl_280	-1.232481
-3.143236	Syl_281	-1.23019
-3.143236	Syl_282	-1.315782
-3.215979	Syl_283	-1.114297
-2.920965	Syl_284	-1.301683
-2.794199	Syl_285	-1.201401
-2.755955	Syl_286	-1.637386
-3.622475	Syl_287	-1.379747
-2.870486	Syl_288	-1.06476
-3.100734	Syl_289	-1.1043
-2.99363	Syl_29	-1.499372
-3.373308	Syl_290	-1.031653
-3.272267	Syl_291	-1.386567
-3.062023	Syl_292	-1.251666
-3.121465	Syl_293	-1.218775
-3.080947	Syl_294	-1.407899
-3.100734	Syl_295	-1.605797
-3.243211	Syl_296	-1.364281
-2.443422	Syl_297	-0.9911278
-2.882566	Syl_298	-0.9183333
-2.6508	Syl_299	-1.274574
-2.704246	Syl_3	-1.347132
-2.96309	Syl_30	-1.098447
-2.480622	Syl_300	-1.231114
-2.680531	Syl_301	-1.110098
-3.412987	Syl_302	-0.9485368
-2.269494	Syl_303	-0.9974922
-2.510775	Syl_304	-1.011532
-2.858732	Syl_305	-1.017715
-2.396975	Syl_306	-1.050804
-2.490442	Syl_307	-0.9704816
-3.062023	Syl_308	-0.9679962
-2.696196	Syl_309	-1.678586
-2.688293	Syl_31	-1.34015
-3.026482	Syl_310	-1.03866
-2.526675	Syl_311	-1.495058
-2.475794	Syl_312	-1.168711
-2.882566	Syl_313	-1.374551
-3.336952	Syl_314	-0.9372408
-2.532107	Syl_315	-1.272901
-3.026482	Syl_316	-1.142327
-3.243211	Syl_317	-1.00032
-2.680531	Syl_318	-1.369092
-2.80431	Syl_319	-1.262773
-3.026482	Syl_32	-1.618539
-2.934558	Syl_320	-1.267443
-3.009746	Syl_321	-1.60073
-2.712448	Syl_322	-1.367986
-2.847289	Syl_323	-1.375291
-3.894058	Syl_324	-1.389249
-2.461624	Syl_325	-1.225159
-3.272267	Syl_326	-1.139299
-2.629766	Syl_327	-1.471795
-2.784317	Syl_328	-1.204916
-3.783593	Syl_329	-1.182478
-2.013165	Syl_33	-1.75651
-2.907784	Syl_330	-1.316391
-2.836139	Syl_331	-1.267124
-3.009746	Syl_332	-1.10656
-2.774656	Syl_333	-1.184449
-3.121465	Syl_334	-1.117131
-3.009746	Syl_335	-1.262037
-2.836139	Syl_336	-1.061941
-2.894992	Syl_337	-1.341378
-3.080947	Syl_338	-1.031529
-3.026482	Syl_339	-1.257603
-2.720807	Syl_34	-1.13721
-2.882566	Syl_340	-1.210845
-2.50049	Syl_341	-1.250057
-3.190353	Syl_342	-1.085311
-3.783593	Syl_343	-1.040889
-3.272267	Syl_344	-1.190434
-3.121465	Syl_345	-1.234297
-3.062023	Syl_346	-1.613149
-3.009746	Syl_347	-1.279302
-3.190353	Syl_348	-1.217658
-3.303406	Syl_349	-1.102598
-2.99363	Syl_35	-1.076366
-3.009746	Syl_350	-1.064124
-2.485504	Syl_351	-1.235553
-2.720807	Syl_352	-1.405068
-2.836139	Syl_353	-1.89654
-2.814663	Syl_354	-1.215476
-4.270042	Syl_355	-2.132952
-2.566208	Syl_356	-1.40357
-2.836139	Syl_357	-1.26499
-3.166156	Syl_358	-1.265406
-3.215979	Syl_359	-1.090468
-3.143236	Syl_36	-1.147615
-2.643675	Syl_360	-1.46749
-2.825268	Syl_361	-1.208188
-2.609703	Syl_362	-1.133275
-2.765205	Syl_363	-1.213447
-3.622475	Syl_364	-1.071077
-2.920965	Syl_365	-1.573787
-2.80431	Syl_366	-1.527381
-3.412987	Syl_367	-1.081374
-2.94859	Syl_368	-1.285285
-3.143236	Syl_369	-0.9988148
-3.062023	Syl_37	-0.9682053
-2.794199	Syl_370	-1.526751
-2.920965	Syl_371	-1.261977
-3.026482	Syl_372	-1.460727
-4.637465	Syl_373	-0.5363698
-2.680531	Syl_374	-1.32497
-3.166156	Syl_375	-1.21567
-2.978092	Syl_376	-1.392582
-3.121465	Syl_377	-1.603577
-2.794199	Syl_378	-1.585816
-2.870486	Syl_379	-1.378698
-3.272267	Syl_38	-1.42215
-3.45666	Syl_380	-1.187663
-2.894992	Syl_381	-1.778025
-2.658044	Syl_382	-1.513421
-3.026482	Syl_383	-1.515374
-2.746897	Syl_384	-1.265205
-2.894992	Syl_385	-1.705349
-3.215979	Syl_386	-0.7563496
-2.672905	Syl_387	-1.053996
-2.50049	Syl_388	-1.363637
-3.215979	Syl_389	-1.07801
-2.794199	Syl_39	-1.373256
-2.688293	Syl_390	-1.220596
-2.438988	Syl_391	-1.52016
-4.042573	Syl_392	-1.542547
-2.847289	Syl_393	-1.340686
-2.400998	Syl_394	-1.390748
-2.636664	Syl_395	-1.316486
-3.373308	Syl_396	-1.083378
-3.336952	Syl_397	-1.47252
-4.270042	Syl_398	-0.532876
-3.026482	Syl_399	-1.387786
-2.526675	Syl_4	-1.206261
-2.94859	Syl_40	-1.370841
-3.062023	Syl_400	-1.227958
-3.009746	Syl_401	-1.335281
-2.825268	Syl_402	-1.752518
-2.738025	Syl_403	-1.598792
-2.774656	Syl_404	-1.311945
-2.381246	Syl_405	-1.71058
-3.009746	Syl_406	-1.847685
-3.622475	Syl_407	-1.489952
-3.143236	Syl_408	-1.261273
-2.643675	Syl_409	-1.232684
-3.121465	Syl_41	-1.376011
-3.026482	Syl_410	-1.415271
-3.622475	Syl_411	-1.778529
-2.920965	Syl_412	-1.325612
-2.94859	Syl_413	-1.146351
-3.695605	Syl_414	-1.970311
-4.31224	Syl_415	-0.523334
-2.870486	Syl_416	-1.148043
-3.166156	Syl_417	-0.9346552
-3.080947	Syl_418	-1.25989
-3.026482	Syl_419	-1.091895
-3.336952	Syl_42	-1.011266
-3.215979	Syl_420	-1.119938
-4.637465	Syl_421	-1.434828
-3.303406	Syl_422	-1.968479
-3.243211	Syl_423	-1.319261
-3.143236	Syl_424	-1.744275
-2.696196	Syl_425	-1.849717
-3.559902	Syl_426	-0.9463822
-3.559902	Syl_427	-1.395835
-2.920965	Syl_428	-1.293065
-2.629766	Syl_429	-1.156638
-2.430254	Syl_43	-1.138621
-2.907784	Syl_430	-1.200934
-2.894992	Syl_431	-1.049063
-2.784317	Syl_432	-1.147829
-3.373308	Syl_433	-1.431669
-2.99363	Syl_434	-1.194908
-2.284685	Syl_435	-1.416843
-3.080947	Syl_436	-1.062073
-3.50522	Syl_437	-1.879975
-2.50049	Syl_438	-1.131184
-2.720807	Syl_439	-0.9475276
-2.658044	Syl_44	-1.308019
-2.665411	Syl_440	-1.134597
-3.412987	Syl_441	-0.9897612
-2.688293	Syl_442	-1.373538
-2.658044	Syl_443	-1.417119
-3.303406	Syl_444	-0.9781023
-2.554541	Syl_445	-1.114401
-2.978092	Syl_446	-1.302935
-3.50522	Syl_447	-1.740135
-3.412987	Syl_448	-1.399786
-2.978092	Syl_449	-1.404929
-3.166156	Syl_45	-1.027756
-3.043889	Syl_450	-1.419513
-2.814663	Syl_451	-1.517998
-2.858732	Syl_452	-1.739104
-2.99363	Syl_453	-1.449799
-3.272267	Syl_454	-1.283282
-2.99363	Syl_455	-1.461186
-2.80431	Syl_456	-1.695005
-3.043889	Syl_457	-1.560414
-2.99363	Syl_458	-1.325254
-3.190353	Syl_459	-1.444017
-2.712448	Syl_46	-1.303281
-4.270042	Syl_460	-1.450293
-3.143236	Syl_461	-1.073509
-3.695605	Syl_462	-1.730591
-3.412987	Syl_463	-1.855913
-3.100734	Syl_464	-1.361422
-3.336952	Syl_465	-1.826065
-4.042573	Syl_466	-1.864268
-2.94859	Syl_467	-1.345218
-3.336952	Syl_468	-1.786241
-4.270042	Syl_469	-1.625326
-2.765205	Syl_47	-1.051852
-3.894058	Syl_470	-1.631356
-4.270042	Syl_471	-1.172755
-3.22894	Syl_472
-4.637465	Syl_473	-1.250937
-3.50522	Syl_474	-0.9278703
-3.783593	Syl_475	-1.642061
-2.794199	Syl_476	-1.523366
-4.042573	Syl_477	-1.273729
-4.042573	Syl_478	-1.542803
-4.31224	Syl_479	-1.708236
-2.584318	Syl_48	-1.096643
-3.100734	Syl_480	-1.804569
-3.166156	Syl_481	-1.473085
-3.062023	Syl_482	-1.427456
-3.100734	Syl_483	-2.385261
-3.303406	Syl_484	-1.967804
-2.825268	Syl_485	-1.586291
-2.920965	Syl_486	-1.249605
-3.080947	Syl_487	-1.392848
-2.920965	Syl_488	-1.822637
-3.243211	Syl_489	-1.392867
-3.190353	Syl_49	-1.096687
-3.190353	Syl_490	-1.67394
-4.270042	Syl_491	-1.517723
-2.616288	Syl_492	-1.43347
-2.978092	Syl_493	-1.296114
-2.920965	Syl_494	-1.362634
-3.272267	Syl_495	-1.819168
-2.894992	Syl_496	-1.643157
-3.026482	Syl_497	-1.216756
-3.894058	Syl_498	-1.67048
-2.99363	Syl_499	-1.420292
-3.243211	Syl_5	-0.9344377
-2.430254	Syl_50	-1.247166
-2.894992	Syl_500	-1.467292
-3.50522	Syl_501	-1.273255
-3.373308	Syl_502	-1.169809
-2.696196	Syl_503	-1.549298
-2.858732	Syl_504	-1.588169
-3.080947	Syl_505	-1.866649
-2.836139	Syl_506	-1.260334
-2.720807	Syl_507	-1.848604
-2.94859	Syl_508	-1.239313
-2.858732	Syl_509	-1.376278
-2.326866	Syl_51	-1.147816
-2.847289	Syl_510	-1.376279
-3.373308	Syl_511	-1.422609
-3.303406	Syl_512	-1.403227
-3.100734	Syl_513	-1.417659
-3.894058	Syl_514	-0.9169219
-3.121465	Syl_515	-1.924446
-3.559902	Syl_516	-1.865051
-3.894058	Syl_517	-1.049785
-3.783593	Syl_518	-1.103464
-4.31224	Syl_519	-1.720747
-2.80431	Syl_52	-1.29579
-4.31224	Syl_520	-1.287274
-3.783593	Syl_521	-2.519328
-3.559902	Syl_522	-1.566148
-3.22894	Syl_523
-3.22894	Syl_524
-3.121465	Syl_525	-1.530912
-3.22894	Syl_526
-3.336952	Syl_527	-2.495484
-3.22894	Syl_528
-3.22894	Syl_529
-2.434599	Syl_53	-0.8151481
-3.22894	Syl_530
-4.637465	Syl_531	-1.183674
-4.31224	Syl_532	-0.3857749
-4.637465	Syl_533	-0.4813352
-4.270042	Syl_534	-2.055538
-4.042573	Syl_535	-1.248129
-3.894058	Syl_536	-1.218476
-3.22894	Syl_537
-3.22894	Syl_538
-4.637465	Syl_539	-1.587451
-2.313446	Syl_54	-1.113985
-3.22894	Syl_540
-3.45666	Syl_541	-1.853112
-3.143236	Syl_542	-0.9919363
-3.303406	Syl_543	-0.9663113
-2.94859	Syl_544	-0.8402853
-4.270042	Syl_545	-1.521474
-3.166156	Syl_546	-1.015132
-2.794199	Syl_547	-1.39856
-3.062023	Syl_548	-0.7352692
-3.695605	Syl_549	-1.397069
-2.794199	Syl_55	-1.03207
-3.412987	Syl_550	-1.370782
-4.31224	Syl_551	-1.597776
-3.559902	Syl_552	-2.256409
-3.272267	Syl_553	-1.152298
-3.373308	Syl_554	-1.379906
-3.894058	Syl_555	-1.255889
-4.31224	Syl_556	-1.970634
-3.783593	Syl_557	-1.234562
-4.637465	Syl_558	-1.503253
-4.270042	Syl_559	-1.939104
-2.417474	Syl_56	-1.367714
-3.894058	Syl_560	-1.623585
-4.637465	Syl_561	-1.328667
-4.637465	Syl_562	-1.308463
-4.31224	Syl_563	-0.9191307
-3.22894	Syl_564
-4.637465	Syl_565	-1.444082
-3.22894	Syl_566
-3.22894	Syl_567
-3.22894	Syl_568
-4.637465	Syl_569	-1.448642
-2.629766	Syl_57	-0.9458638
-3.894058	Syl_570	-1.456535
-3.894058	Syl_571	-1.541283
-4.31224	Syl_572	-1.491259
-3.336952	Syl_573	-1.404214
-3.243211	Syl_574	-1.357042
-3.190353	Syl_575	-1.080277
-2.96309	Syl_576	-1.224028
-3.695605	Syl_577	-1.557839
-3.190353	Syl_578	-1.375781
-3.559902	Syl_579	-1.668058
-3.100734	Syl_58	-1.320804
-3.373308	Syl_580	-1.346891
-3.243211	Syl_581	-1.829164
-3.336952	Syl_582	-1.926552
-4.042573	Syl_583	-0.516012
-4.270042	Syl_584	-1.022934
-3.695605	Syl_585	-1.992592
-4.637465	Syl_586	-1.241517
-3.22894	Syl_587
-3.622475	Syl_588	-1.581452
-4.270042	Syl_589	-0.4891644
-2.457001	Syl_59	-1.284804
-4.270042	Syl_590	-1.985499
-2.560335	Syl_591	-1.044274
-3.009746	Syl_592	-1.451689
-3.272267	Syl_593	-1.218145
-2.978092	Syl_594	-1.230771
-3.143236	Syl_595	-1.171487
-3.143236	Syl_596	-2.072749
-3.190353	Syl_597	-1.093545
-3.622475	Syl_598	-1.120936
-3.695605	Syl_599	-1.099246
-2.24908	Syl_6	-1.145509
-2.457001	Syl_60	-1.043345
-4.31224	Syl_600	-0.5196999
-2.729331	Syl_601	-1.291513
-3.303406	Syl_602	-1.093687
-3.243211	Syl_603	-1.486294
-4.042573	Syl_604	-2.231576
-2.825268	Syl_605	-1.197666
-3.559902	Syl_606	-0.5317738
-3.50522	Syl_607	-2.169604
-3.080947	Syl_608	-1.714999
-3.412987	Syl_609	-1.183761
-2.616288	Syl_61	-1.112779
-3.783593	Syl_610	-1.418546
-4.637465	Syl_611	-0.5296055
-3.190353	Syl_612	-1.520314
-3.22894	Syl_613
-2.738025	Syl_614	-1.835585
-3.50522	Syl_615	-1.196541
-3.22894	Syl_616
-3.622475	Syl_617	-1.416481
-3.243211	Syl_618	-1.217816
-4.637465	Syl_619	-0.5366599
-2.907784	Syl_62	-1.260771
-3.50522	Syl_620	-1.505597
-3.190353	Syl_621	-1.495623
-2.882566	Syl_622	-1.286655
-3.783593	Syl_623	-1.564885
-3.121465	Syl_624	-1.154189
-3.100734	Syl_625	-1.295125
-3.215979	Syl_626	-1.164627
-2.882566	Syl_627	-1.520385
-3.45666	Syl_628	-1.57296
-3.062023	Syl_629	-2.038784
-2.266518	Syl_63	-1.002702
-3.412987	Syl_630	-1.542681
-3.080947	Syl_631	-1.507949
-2.907784	Syl_632	-1.735961
-3.50522	Syl_633	-1.136599
-4.042573	Syl_634	-1.630186
-3.303406	Syl_635	-1.678738
-3.894058	Syl_636	-1.84259
-4.31224	Syl_637	-1.455634
-3.22894	Syl_638
-3.22894	Syl_639
-2.643675	Syl_64	-1.199033
-3.22894	Syl_640
-3.22894	Syl_641
-3.009746	Syl_642	-1.240808
-2.99363	Syl_643	-1.33581
-3.303406	Syl_644	-1.157761
-3.783593	Syl_645	-1.398457
-3.622475	Syl_646	-1.400702
-3.45666	Syl_647	-1.271325
-2.882566	Syl_648	-1.453946
-3.622475	Syl_649	-1.028837
-2.870486	Syl_65	-1.446052
-3.45666	Syl_650	-1.317892
-3.695605	Syl_651	-2.204957
-3.783593	Syl_652	-1.953935
-3.080947	Syl_653	-1.562728
-4.042573	Syl_654	-1.096585
-4.042573	Syl_655	-1.491394
-3.22894	Syl_656
-3.894058	Syl_657	-2.090323
-3.22894	Syl_658
-4.637465	Syl_659	-0.5245196
-2.658044	Syl_66	-1.260853
-3.22894	Syl_660
-2.978092	Syl_661	-1.507319
-2.330287	Syl_662	-1.918724
-3.894058	Syl_663	-1.544915
-2.96309	Syl_664	-1.629632
-3.009746	Syl_665	-1.814666
-3.45666	Syl_666	-1.41709
-3.894058	Syl_667	-1.181636
-3.50522	Syl_668	-1.124781
-4.31224	Syl_669	-0.4618816
-2.99363	Syl_67	-1.229126
-3.043889	Syl_670	-1.084623
-3.22894	Syl_671
-3.166156	Syl_672	-1.440132
-3.695605	Syl_673	-1.135942
-3.894058	Syl_674	-1.044683
-3.783593	Syl_675	-1.634455
-4.637465	Syl_676	-1.670242
-4.042573	Syl_677	-1.941586
-3.303406	Syl_678	-1.920556
-4.31224	Syl_679	-2.205355
-2.729331	Syl_68	-1.373968
-3.894058	Syl_680	-2.088377
-3.215979	Syl_681	-1.628226
-3.50522	Syl_682	-0.9933577
-3.336952	Syl_683	-1.548289
-3.373308	Syl_684	-1.534298
-3.45666	Syl_685	-1.547567
-3.121465	Syl_686	-1.41255
-3.695605	Syl_687	-1.252675
-3.22894	Syl_688
-4.042573	Syl_689	-1.973083
-3.166156	Syl_69	-1.490768
-4.31224	Syl_690	-0.5243464
-3.783593	Syl_691	-1.67644
-4.270042	Syl_692	-1.541311
-4.270042	Syl_693	-1.504758
-3.243211	Syl_694	-1.470204
-3.45666	Syl_695	-1.346143
-4.270042	Syl_696	-1.874305
-2.96309	Syl_697	-1.56763
-3.026482	Syl_698	-1.446014
-4.270042	Syl_699	-1.753484
-2.405059	Syl_7	-1.262001
-2.554541	Syl_70	-1.33186
-3.22894	Syl_700
-4.042573	Syl_701	-1.466532
-4.637465	Syl_702	-0.5245196
-3.22894	Syl_703
-3.22894	Syl_704
-4.637465	Syl_705	-1.162335
-3.22894	Syl_706
-3.22894	Syl_707
-4.042573	Syl_708	-1.71187
-3.22894	Syl_709
-2.405059	Syl_71	-1.485576
-3.22894	Syl_710
-3.22894	Syl_711
-3.22894	Syl_712
-3.22894	Syl_713
-3.22894	Syl_714
-3.22894	Syl_715
-3.22894	Syl_716
-3.303406	Syl_717	-1.818135
-4.31224	Syl_718	-0.5241972
-2.688293	Syl_719	-1.376271
-3.100734	Syl_72	-1.27253
-2.978092	Syl_720	-1.184111
-3.894058	Syl_721	-1.206497
-2.894992	Syl_722	-1.232028
-2.870486	Syl_723	-1.265719
-3.622475	Syl_724	-0.9246359
-3.303406	Syl_725	-0.9280767
-3.783593	Syl_726	-1.481669
-2.784317	Syl_727	-1.73496
-3.243211	Syl_728	-1.181974
-3.412987	Syl_729	-1.603644
-2.765205	Syl_73	-1.327169
-4.270042	Syl_730	-1.562036
-3.143236	Syl_731	-1.084893
-2.765205	Syl_732	-1.718013
-4.042573	Syl_733	-2.010065
-3.559902	Syl_734	-1.555176
-3.303406	Syl_735	-1.17451
-4.270042	Syl_736	-1.319703
-4.637465	Syl_737	-0.5365632
-2.894992	Syl_738	-1.056076
-4.042573	Syl_739	-2.040711
-2.847289	Syl_74	-1.131928
-2.94859	Syl_740	-0.9249696
-3.303406	Syl_741	-1.1229
-2.96309	Syl_742	-1.402433
-3.100734	Syl_743	-1.298282
-2.978092	Syl_744	-1.238315
-3.373308	Syl_745	-1.944677
-3.215979	Syl_746	-1.332084
-3.190353	Syl_747	-1.187067
-4.31224	Syl_748	-1.508118
-3.026482	Syl_749	-1.370816
-3.412987	Syl_75	-1.477842
-3.412987	Syl_750	-1.323975
-4.042573	Syl_751	-1.602698
-2.729331	Syl_752	-1.386874
-2.858732	Syl_753	-1.052194
-3.336952	Syl_754	-1.34039
-3.080947	Syl_755	-1.302914
-2.80431	Syl_756	-1.326404
-3.783593	Syl_757	-1.002922
-2.421692	Syl_758	-0.9229268
-2.246241	Syl_759	-1.29836
-3.100734	Syl_76	-1.292365
-3.190353	Syl_760	-1.474774
-2.526675	Syl_761	-1.362435
-3.622475	Syl_762	-0.5830981
-3.190353	Syl_763	-1.360352
-3.190353	Syl_764	-1.406354
-3.695605	Syl_765	-0.9880615
-2.560335	Syl_766	-1.409974
-2.978092	Syl_767	-1.499292
-2.696196	Syl_768	-1.110563
-3.50522	Syl_769	-2.173542
-2.882566	Syl_77	-1.219143
-2.836139	Syl_770	-1.155928
-4.042573	Syl_771	-1.390447
-3.243211	Syl_772	-1.403635
-2.894992	Syl_773	-1.705667
-3.373308	Syl_774	-1.54649
-2.560335	Syl_775	-1.542324
-2.836139	Syl_776	-1.484481
-2.814663	Syl_777	-1.353608
-3.166156	Syl_778	-1.274645
-4.31224	Syl_779	-0.5235001
-2.696196	Syl_78	-1.471385
-2.894992	Syl_780	-1.588771
-4.270042	Syl_781	-1.99045
-3.303406	Syl_782	-1.14156
-3.412987	Syl_783	-1.605291
-2.934558	Syl_784	-1.377825
-3.303406	Syl_785	-1.441661
-2.99363	Syl_786	-2.21156
-3.166156	Syl_787	-1.487748
-3.026482	Syl_788	-1.35393
-3.121465	Syl_789	-1.564328
-3.559902	Syl_79	-1.30964
-3.373308	Syl_790	-1.427292
-3.894058	Syl_791	-1.089064
-4.270042	Syl_792	-1.050507
-3.22894	Syl_793
-3.22894	Syl_794
-3.22894	Syl_795
-3.22894	Syl_796
-3.22894	Syl_797
-3.22894	Syl_798
-3.22894	Syl_799
-2.665411	Syl_8	-1.319728
-2.52131	Syl_80	-1.332348
-3.22894	Syl_800
-3.22894	Syl_801
-3.22894	Syl_802
-3.22894	Syl_803
-3.22894	Syl_804
-3.22894	Syl_805
-3.22894	Syl_806
-3.22894	Syl_807
-2.94859	Syl_808	-1.246294
-3.215979	Syl_809	-1.938965
-4.637465	Syl_81	-1.401217
-4.270042	Syl_810	-1.581113
-3.303406	Syl_811	-1.110977
-3.100734	Syl_812	-1.19437
-3.121465	Syl_813	-1.309895
-3.22894	Syl_814
-3.45666	Syl_815	-1.174325
-3.22894	Syl_816
-3.026482	Syl_817	-1.587452
-2.99363	Syl_818	-1.268379
-3.243211	Syl_819	-1.313099
-2.323472	Syl_82	-1.625429
-3.080947	Syl_820	-1.491058
-2.510775	Syl_821	-1.265762
-3.22894	Syl_822
-3.22894	Syl_823
-3.22894	Syl_824
-3.22894	Syl_825
-3.22894	Syl_826
-3.22894	Syl_827
-3.22894	Syl_828
-3.22894	Syl_829
-2.80431	Syl_83	-0.8788502
-3.22894	Syl_830
-3.22894	Syl_831
-3.22894	Syl_832
-3.22894	Syl_833
-3.22894	Syl_834
-3.22894	Syl_835
-3.166156	Syl_836	-0.921343
-3.080947	Syl_837	-1.145019
-4.042573	Syl_838	-1.634607
-2.882566	Syl_839	-1.41325
-3.215979	Syl_84	-1.2163
-3.336952	Syl_840	-1.391026
-3.412987	Syl_841	-1.590059
-3.100734	Syl_842	-1.229528
-3.695605	Syl_843	-1.799874
-4.270042	Syl_844	-1.540634
-3.894058	Syl_845	-1.267675
-2.720807	Syl_846	-1.183789
-3.062023	Syl_847	-1.506399
-3.336952	Syl_848	-1.178056
-2.643675	Syl_849	-1.469275
-2.516011	Syl_85	-0.9897227
-2.934558	Syl_850	-1.500594
-3.215979	Syl_851	-1.145721
-3.143236	Syl_852	-1.240577
-2.836139	Syl_853	-1.169016
-3.026482	Syl_854	-1.085098
-3.166156	Syl_855	-1.106802
-2.794199	Syl_856	-1.244453
-2.825268	Syl_857	-1.346
-3.45666	Syl_858	-1.336459
-3.100734	Syl_859	-1.267713
-2.443422	Syl_86	-1.380799
-2.784317	Syl_860	-1.234575
-3.50522	Syl_861	-1.102319
-4.270042	Syl_862	-1.565324
-3.062023	Syl_863	-1.340591
-4.042573	Syl_864	-1.735424
-4.31224	Syl_865	-0.4618816
-4.042573	Syl_866	-0.6676857
-3.121465	Syl_867	-0.9662509
-3.894058	Syl_868	-0.9716288
-3.373308	Syl_869	-1.38339
-2.658044	Syl_87	-1.293373
-3.783593	Syl_870	-1.711802
-4.637465	Syl_871	-1.794256
-2.794199	Syl_872	-1.297043
-3.272267	Syl_873	-1.294182
-3.783593	Syl_874	-1.835512
-2.755955	Syl_875	-1.14447
-2.847289	Syl_876	-0.8496133
-2.99363	Syl_877	-1.177356
-2.814663	Syl_878	-1.347458
-2.894992	Syl_879	-1.552325
-2.6508	Syl_88	-1.35384
-2.96309	Syl_880	-1.169924
-3.043889	Syl_881	-1.268495
-3.45666	Syl_882	-0.9929653
-2.96309	Syl_883	-1.356673
-3.22894	Syl_884
-4.042573	Syl_885	-0.429397
-4.31224	Syl_886	-1.597843
-3.22894	Syl_887
-4.31224	Syl_888	-1.676482
-4.637465	Syl_889	-1.683827
-2.566208	Syl_89	-1.358188
-3.783593	Syl_890	-1.971604
-4.637465	Syl_891	-1.377741
-3.783593	Syl_892	-0.839614
-4.31224	Syl_893	-1.998123
-4.637465	Syl_894	-1.591222
-4.637465	Syl_895	-1.132372
-3.783593	Syl_896	-1.143189
-3.143236	Syl_897	-1.305146
-2.882566	Syl_898	-1.05126
-3.50522	Syl_899	-1.379537
-2.221488	Syl_9	-1.456418
-2.870486	Syl_90	-1.153646
-4.270042	Syl_900	-1.046693
-2.784317	Syl_901	-1.317968
-2.755955	Syl_902	-1.411644
-2.96309	Syl_903	-1.295319
-3.100734	Syl_904	-1.362431
-3.336952	Syl_905	-1.112588
-3.062023	Syl_906	-1.17324
-3.062023	Syl_907	-0.9218726
-2.814663	Syl_908	-1.195568
-3.215979	Syl_909	-1.231394
-2.643675	Syl_91	-1.102957
-2.94859	Syl_910	-1.057749
-4.637465	Syl_911	-1.074947
-2.814663	Syl_912	-1.082011
-3.373308	Syl_913	-1.280967
-2.738025	Syl_914	-1.23629
-2.746897	Syl_915	-1.480696
-3.50522	Syl_916	-1.210682
-3.043889	Syl_917	-1.00757
-3.080947	Syl_918	-1.250988
-3.121465	Syl_919	-1.084139
-2.510775	Syl_92	-1.205784
-2.680531	Syl_920	-1.262115
-3.412987	Syl_921	-1.203732
-2.696196	Syl_922	-1.355648
-2.603216	Syl_923	-1.519062
-3.336952	Syl_924	-1.072144
-3.009746	Syl_925	-1.131878
-3.412987	Syl_926	-0.9573215
-3.783593	Syl_927	-0.9493129
-4.042573	Syl_928	-1.069016
-3.45666	Syl_929	-1.207772
-2.920965	Syl_93	-1.110333
-2.712448	Syl_930	-1.362495
-3.894058	Syl_931	-1.344146
-3.121465	Syl_932	-0.8936076
-4.637465	Syl_933	-1.203261
-4.270042	Syl_934	-1.517723
-4.637465	Syl_935	-1.542547
-2.978092	Syl_94	-1.414461
-2.755955	Syl_95	-1.258506
-2.784317	Syl_96	-1.388156
-3.215979	Syl_97	-1.403433
-4.31224	Syl_98	-1.262924
-3.272267	Syl_99	-1.026989
-3.22894	silH
-3.22894	silT
-3.22894	sp

\2-grams:
-2.449547	<s> Syl_0
-2.733202	<s> Syl_1
-2.593611	<s> Syl_10
-2.507961	<s> Syl_100
-3.412744	<s> Syl_101
-3.154466	<s> Syl_102
-2.922259	<s> Syl_103
-3.085385	<s> Syl_104
-2.519954	<s> Syl_105
-2.790789	<s> Syl_106
-2.842347	<s> Syl_107
-2.70305	<s> Syl_108
-2.983396	<s> Syl_109
-2.456996	<s> Syl_11
-3.162019	<s> Syl_110
-3.154466	<s> Syl_111
-3.048662	<s> Syl_112
-2.88447	<s> Syl_113
-3.349692	<s> Syl_114
-2.561868	<s> Syl_116
-5.066361	<s> Syl_117
-3.662621	<s> Syl_118
-2.488142	<s> Syl_12
-3.537683	<s> Syl_120
-3.63914	<s> Syl_121
-2.968504	<s> Syl_122
-3.147042	<s> Syl_123
-3.118553	<s> Syl_124
-2.430756	<s> Syl_125
-2.973411	<s> Syl_126
-2.705706	<s> Syl_127
-2.827989	<s> Syl_128
-3.210324	<s> Syl_129
-2.591558	<s> Syl_13
-3.48653	<s> Syl_130
-3.048662	<s> Syl_131
-3.020267	<s> Syl_132
-3.284425	<s> Syl_133
-2.589514	<s> Syl_134
-4.072796	<s> Syl_135
-3.412744	<s> Syl_136
-3.294645	<s> Syl_137
-2.94017	<s> Syl_138
-4.597549	<s> Syl_139
-2.78756	<s> Syl_14
-2.831534	<s> Syl_140
-3.162019	<s> Syl_141
-2.935623	<s> Syl_142
-2.559959	<s> Syl_143
-3.218924	<s> Syl_144
-3.386415	<s> Syl_145
-3.30511	<s> Syl_146
-3.020267	<s> Syl_147
-3.519954	<s> Syl_148
-2.949411	<s> Syl_149
-2.79732	<s> Syl_15
-3.139743	<s> Syl_150
-3.048662	<s> Syl_151
-2.88851	<s> Syl_152
-2.514773	<s> Syl_153
-2.667474	<s> Syl_154
-2.900861	<s> Syl_155
-3.072796	<s> Syl_156
-2.983396	<s> Syl_157
-3.177531	<s> Syl_158
-3.326829	<s> Syl_159
-2.581434	<s> Syl_16
-2.892588	<s> Syl_160
-3.177531	<s> Syl_161
-3.245796	<s> Syl_162
-2.677345	<s> Syl_163
-2.876501	<s> Syl_164
-3.201891	<s> Syl_165
-3.264681	<s> Syl_166
-3.054571	<s> Syl_167
-2.790789	<s> Syl_168
-3.470736	<s> Syl_169
-3.426532	<s> Syl_17
-3.031403	<s> Syl_170
-2.88851	<s> Syl_171
-3.10498	<s> Syl_172
-2.81409	<s> Syl_173
-3.048662	<s> Syl_174
-3.687445	<s> Syl_175
-2.70305	<s> Syl_176
-3.264681	<s> Syl_177
-3.616864	<s> Syl_178
-2.682365	<s> Syl_179
-2.224167	<s> Syl_18
-3.326829	<s> Syl_180
-3.373826	<s> Syl_181
-2.289505	<s> Syl_182
-3.025799	<s> Syl_183
-3.326829	<s> Syl_184
-3.662621	<s> Syl_185
-3.10498	<s> Syl_186
-2.963651	<s> Syl_187
-3.386415	<s> Syl_188
-2.835109	<s> Syl_189
-3.00408	<s> Syl_19
-2.581434	<s> Syl_190
-2.569589	<s> Syl_191
-2.439327	<s> Syl_192
-2.781173	<s> Syl_193
-3.132564	<s> Syl_194
-2.653076	<s> Syl_195
-2.716497	<s> Syl_196
-4.394211	<s> Syl_198
-2.653076	<s> Syl_199
-3.066636	<s> Syl_2
-3.020267	<s> Syl_20
-3.118553	<s> Syl_200
-3.519954	<s> Syl_201
-3.245796	<s> Syl_202
-2.354413	<s> Syl_203
-3.39938	<s> Syl_204
-2.621229	<s> Syl_205
-3.361591	<s> Syl_206
-3.125502	<s> Syl_207
-3.556166	<s> Syl_208
-3.066636	<s> Syl_209
-2.478561	<s> Syl_21
-2.803951	<s> Syl_210
-3.210324	<s> Syl_211
-2.778015	<s> Syl_212
-2.917894	<s> Syl_213
-3.079045	<s> Syl_214
-3.255136	<s> Syl_215
-3.020267	<s> Syl_216
-3.963651	<s> Syl_218
-2.958853	<s> Syl_219
-3.060561	<s> Syl_22
-3.162019	<s> Syl_220
-3.361591	<s> Syl_221
-2.949411	<s> Syl_222
-3.771766	<s> Syl_223
-2.759531	<s> Syl_224
-3.025799	<s> Syl_225
-3.072796	<s> Syl_226
-3.440773	<s> Syl_227
-2.690007	<s> Syl_228
-2.636861	<s> Syl_229
-4.597549	<s> Syl_23
-2.390264	<s> Syl_230
-2.771766	<s> Syl_231
-2.324608	<s> Syl_232
-3.502921	<s> Syl_233
-2.336969	<s> Syl_234
-3.066636	<s> Syl_235
-3.066636	<s> Syl_236
-3.349692	<s> Syl_237
-3.042833	<s> Syl_238
-2.756526	<s> Syl_239
-2.400698	<s> Syl_24
-3.154466	<s> Syl_240
-3.193618	<s> Syl_241
-2.695178	<s> Syl_242
-2.784355	<s> Syl_243
-3.294645	<s> Syl_244
-2.407349	<s> Syl_245
-2.983396	<s> Syl_246
-3.193618	<s> Syl_247
-2.753541	<s> Syl_248
-3.009409	<s> Syl_249
-2.353228	<s> Syl_25
-2.526959	<s> Syl_250
-3.079045	<s> Syl_251
-2.958853	<s> Syl_252
-3.177531	<s> Syl_253
-3.274441	<s> Syl_254
-2.944766	<s> Syl_255
-2.876501	<s> Syl_256
-3.014804	<s> Syl_257
-3.426532	<s> Syl_258
-2.697786	<s> Syl_259
-2.70041	<s> Syl_26
-3.091819	<s> Syl_260
-2.810684	<s> Syl_261
-2.853436	<s> Syl_262
-2.988475	<s> Syl_263
-2.550538	<s> Syl_264
-3.054571	<s> Syl_265
-3.079045	<s> Syl_266
-2.636861	<s> Syl_267
-2.349692	<s> Syl_268
-3.132564	<s> Syl_269
-2.403346	<s> Syl_27
-3.315834	<s> Syl_270
-2.917894	<s> Syl_271
-3.455496	<s> Syl_272
-2.909294	<s> Syl_273
-2.998816	<s> Syl_274
-4.498912	<s> Syl_275
-3.132564	<s> Syl_276
-2.94017	<s> Syl_277
-3.014804	<s> Syl_278
-2.778015	<s> Syl_279
-2.926668	<s> Syl_28
-2.480143	<s> Syl_280
-3.042833	<s> Syl_281
-3.502921	<s> Syl_282
-3.169706	<s> Syl_283
-3.803951	<s> Syl_284
-2.730373	<s> Syl_285
-2.653076	<s> Syl_286
-2.954106	<s> Syl_287
-2.750576	<s> Syl_288
-3.009409	<s> Syl_289
-2.88851	<s> Syl_29
-2.765606	<s> Syl_290
-2.756526	<s> Syl_291
-2.705706	<s> Syl_292
-2.926668	<s> Syl_293
-2.905057	<s> Syl_294
-2.983396	<s> Syl_295
-3.687445	<s> Syl_296
-2.672381	<s> Syl_297
-2.655443	<s> Syl_298
-3.30511	<s> Syl_299
-3.066636	<s> Syl_3
-3.255136	<s> Syl_30
-2.771766	<s> Syl_300
-2.593611	<s> Syl_301
-3.236653	<s> Syl_302
-2.949411	<s> Syl_303
-2.219793	<s> Syl_304
-2.548678	<s> Syl_305
-2.361591	<s> Syl_306
-2.677345	<s> Syl_307
-2.713774	<s> Syl_308
-3.48653	<s> Syl_309
-2.591558	<s> Syl_31
-3.284425	<s> Syl_310
-3.537683	<s> Syl_311
-2.771766	<s> Syl_312
-3.218924	<s> Syl_313
-2.954106	<s> Syl_314
-3.132564	<s> Syl_315
-3.361591	<s> Syl_316
-2.998816	<s> Syl_317
-3.147042	<s> Syl_318
-3.177531	<s> Syl_319
-2.968504	<s> Syl_32
-3.03708	<s> Syl_320
-2.842347	<s> Syl_321
-3.111714	<s> Syl_322
-2.935623	<s> Syl_323
-2.810684	<s> Syl_324
-2.759531	<s> Syl_325
-3.30511	<s> Syl_326
-2.359185	<s> Syl_327
-2.905057	<s> Syl_328
-3.162019	<s> Syl_329
-2.612543	<s> Syl_33
-2.807304	<s> Syl_330
-2.716497	<s> Syl_331
-3.154466	<s> Syl_332
-2.842347	<s> Syl_333
-3.132564	<s> Syl_334
-2.983396	<s> Syl_335
-3.060561	<s> Syl_336
-2.79732	<s> Syl_337
-3.079045	<s> Syl_338
-3.00408	<s> Syl_339
-2.983396	<s> Syl_34
-3.169706	<s> Syl_340
-2.400698	<s> Syl_341
-3.349692	<s> Syl_342
-2.824472	<s> Syl_343
-3.147042	<s> Syl_344
-2.790789	<s> Syl_345
-2.660215	<s> Syl_346
-2.913573	<s> Syl_347
-2.489759	<s> Syl_348
-2.614698	<s> Syl_349
-3.294645	<s> Syl_35
-2.730373	<s> Syl_350
-2.254193	<s> Syl_351
-3.154466	<s> Syl_352
-3.39938	<s> Syl_353
-2.648381	<s> Syl_354
-3.63914	<s> Syl_355
-2.724769	<s> Syl_356
-2.750576	<s> Syl_357
-3.085385	<s> Syl_358
-2.998816	<s> Syl_359
-2.993615	<s> Syl_36
-2.778015	<s> Syl_360
-2.835109	<s> Syl_361
-2.781173	<s> Syl_362
-3.060561	<s> Syl_363
-2.88447	<s> Syl_364
-3.118553	<s> Syl_365
-2.853436	<s> Syl_366
-2.860989	<s> Syl_367
-3.169706	<s> Syl_368
-2.842347	<s> Syl_369
-2.790789	<s> Syl_37
-3.412744	<s> Syl_370
-2.79732	<s> Syl_371
-3.054571	<s> Syl_372
-5.066361	<s> Syl_373
-2.437887	<s> Syl_374
-2.589514	<s> Syl_375
-3.154466	<s> Syl_376
-3.876501	<s> Syl_377
-3.294645	<s> Syl_378
-2.998816	<s> Syl_379
-3.274441	<s> Syl_38
-2.778015	<s> Syl_380
-3.274441	<s> Syl_381
-2.831534	<s> Syl_382
-2.575471	<s> Syl_383
-2.604027	<s> Syl_384
-2.476985	<s> Syl_385
-3.111714	<s> Syl_386
-3.00408	<s> Syl_387
-2.610398	<s> Syl_388
-3.315834	<s> Syl_389
-2.842347	<s> Syl_39
-2.616864	<s> Syl_390
-2.489759	<s> Syl_391
-4.394211	<s> Syl_392
-2.630092	<s> Syl_393
-2.51306	<s> Syl_394
-2.669921	<s> Syl_395
-2.913573	<s> Syl_396
-3.386415	<s> Syl_397
-4.498912	<s> Syl_398
-2.423739	<s> Syl_399
-2.730373	<s> Syl_4
-2.913573	<s> Syl_40
-2.719237	<s> Syl_400
-3.274441	<s> Syl_401
-2.537683	<s> Syl_402
-2.610398	<s> Syl_403
-3.154466	<s> Syl_404
-3.201891	<s> Syl_405
-3.519954	<s> Syl_406
-2.968504	<s> Syl_407
-3.1855	<s> Syl_408
-3.042833	<s> Syl_409
-2.546826	<s> Syl_41
-2.998816	<s> Syl_410
-3.803951	<s> Syl_411
-2.963651	<s> Syl_412
-2.853436	<s> Syl_413
-4.498912	<s> Syl_414
-5.066361	<s> Syl_415
-2.868676	<s> Syl_416
-2.905057	<s> Syl_417
-3.218924	<s> Syl_418
-2.648381	<s> Syl_419
-2.958853	<s> Syl_42
-2.926668	<s> Syl_420
-3.39938	<s> Syl_421
-3.687445	<s> Syl_422
-3.00408	<s> Syl_423
-3.519954	<s> Syl_424
-3.079045	<s> Syl_425
-3.009409	<s> Syl_426
-2.713774	<s> Syl_427
-2.983396	<s> Syl_428
-2.509654	<s> Syl_429
-2.279405	<s> Syl_43
-2.892588	<s> Syl_430
-2.367666	<s> Syl_431
-2.917894	<s> Syl_432
-2.790789	<s> Syl_433
-3.39938	<s> Syl_434
-2.331307	<s> Syl_435
-2.954106	<s> Syl_436
-2.695178	<s> Syl_437
-2.304052	<s> Syl_438
-2.771766	<s> Syl_439
-2.288484	<s> Syl_44
-2.579437	<s> Syl_440
-3.014804	<s> Syl_441
-2.81409	<s> Syl_442
-3.048662	<s> Syl_443
-2.935623	<s> Syl_444
-2.636861	<s> Syl_445
-3.455496	<s> Syl_446
-3.125502	<s> Syl_447
-3.09835	<s> Syl_448
-3.09835	<s> Syl_449
-3.132564	<s> Syl_45
-3.1855	<s> Syl_450
-3.326829	<s> Syl_451
-3.245796	<s> Syl_452
-3.537683	<s> Syl_453
-3.072796	<s> Syl_454
-2.835109	<s> Syl_455
-3.227698	<s> Syl_456
-2.931122	<s> Syl_457
-3.876501	<s> Syl_458
-3.426532	<s> Syl_459
-2.835109	<s> Syl_46
-3.10498	<s> Syl_460
-3.30511	<s> Syl_461
-3.741803	<s> Syl_462
-3.963651	<s> Syl_463
-3.575471	<s> Syl_464
-3.687445	<s> Syl_465
-3.48653	<s> Syl_466
-2.244873	<s> Syl_467
-2.963651	<s> Syl_468
-3.713774	<s> Syl_469
-2.711068	<s> Syl_47
-3.048662	<s> Syl_470
-3.361591	<s> Syl_471
-3.361591	<s> Syl_473
-3.274441	<s> Syl_474
-3.426532	<s> Syl_475
-3.079045	<s> Syl_476
-2.949411	<s> Syl_477
-2.958853	<s> Syl_478
-3.386415	<s> Syl_479
-2.824472	<s> Syl_48
-2.978375	<s> Syl_480
-2.810684	<s> Syl_481
-2.771766	<s> Syl_482
-3.125502	<s> Syl_483
-3.803951	<s> Syl_484
-3.274441	<s> Syl_485
-2.81409	<s> Syl_486
-2.968504	<s> Syl_487
-3.412744	<s> Syl_488
-3.10498	<s> Syl_489
-2.831534	<s> Syl_49
-3.556166	<s> Syl_490
-3.771766	<s> Syl_491
-2.820984	<s> Syl_492
-3.048662	<s> Syl_493
-2.655443	<s> Syl_494
-3.025799	<s> Syl_495
-3.315834	<s> Syl_496
-3.771766	<s> Syl_497
-3.111714	<s> Syl_498
-3.326829	<s> Syl_499
-2.864815	<s> Syl_5
-2.108334	<s> Syl_50
-2.571541	<s> Syl_500
-3.210324	<s> Syl_501
-2.958853	<s> Syl_502
-2.662621	<s> Syl_503
-2.558059	<s> Syl_504
-3.025799	<s> Syl_505
-2.931122	<s> Syl_506
-3.39938	<s> Syl_507
-3.162019	<s> Syl_508
-2.900861	<s> Syl_509
-2.784355	<s> Syl_51
-2.516493	<s> Syl_510
-3.426532	<s> Syl_511
-3.741803	<s> Syl_512
-3.227698	<s> Syl_513
-3.085385	<s> Syl_514
-3.687445	<s> Syl_515
-3.63914	<s> Syl_516
-3.455496	<s> Syl_517
-3.236653	<s> Syl_518
-2.973411	<s> Syl_519
-2.630092	<s> Syl_52
-3.662621	<s> Syl_520
-3.741803	<s> Syl_521
-3.556166	<s> Syl_522
-2.78756	<s> Syl_525
-3.470736	<s> Syl_527
-2.367666	<s> Syl_53
-3.132564	<s> Syl_531
-4.394211	<s> Syl_532
-4.498912	<s> Syl_533
-2.784355	<s> Syl_534
-2.759531	<s> Syl_535
-2.733202	<s> Syl_536
-3.326829	<s> Syl_539
-2.744708	<s> Syl_54
-2.931122	<s> Syl_541
-2.926668	<s> Syl_542
-3.1855	<s> Syl_543
-3.09835	<s> Syl_544
-3.556166	<s> Syl_545
-3.111714	<s> Syl_546
-3.227698	<s> Syl_547
-3.470736	<s> Syl_548
-3.00408	<s> Syl_549
-2.922259	<s> Syl_55
-3.440773	<s> Syl_550
-3.426532	<s> Syl_551
-4.207608	<s> Syl_552
-3.132564	<s> Syl_553
-3.917894	<s> Syl_554
-4.014804	<s> Syl_555
-3.48653	<s> Syl_556
-4.394211	<s> Syl_557
-3.426532	<s> Syl_558
-3.771766	<s> Syl_559
-2.548678	<s> Syl_56
-3.440773	<s> Syl_560
-3.595675	<s> Syl_561
-3.616864	<s> Syl_562
-2.872571	<s> Syl_563
-3.48653	<s> Syl_565
-3.470736	<s> Syl_569
-2.842347	<s> Syl_57
-3.255136	<s> Syl_570
-3.575471	<s> Syl_571
-3.09835	<s> Syl_572
-3.236653	<s> Syl_573
-2.612543	<s> Syl_574
-3.326829	<s> Syl_575
-3.537683	<s> Syl_576
-3.227698	<s> Syl_577
-3.118553	<s> Syl_578
-3.616864	<s> Syl_579
-2.614698	<s> Syl_58
-3.091819	<s> Syl_580
-4.072796	<s> Syl_581
-3.177531	<s> Syl_582
-3.917894	<s> Syl_583
-3.687445	<s> Syl_584
-3.349692	<s> Syl_585
-3.177531	<s> Syl_588
-4.793699	<s> Syl_589
-2.253252	<s> Syl_59
-5.066361	<s> Syl_590
-2.949411	<s> Syl_591
-2.575471	<s> Syl_592
-2.601924	<s> Syl_593
-3.284425	<s> Syl_594
-3.10498	<s> Syl_595
-3.33811	<s> Syl_596
-2.978375	<s> Syl_597
-3.1855	<s> Syl_598
-2.917894	<s> Syl_599
-2.273455	<s> Syl_6
-2.415467	<s> Syl_60
-4.394211	<s> Syl_600
-3.274441	<s> Syl_601
-2.488142	<s> Syl_602
-3.294645	<s> Syl_603
-3.426532	<s> Syl_604
-4.597549	<s> Syl_605
-3.876501	<s> Syl_606
-3.031403	<s> Syl_607
-3.177531	<s> Syl_608
-3.10498	<s> Syl_609
-2.853436	<s> Syl_61
-3.537683	<s> Syl_610
-4.207608	<s> Syl_611
-3.020267	<s> Syl_612
-4.207608	<s> Syl_614
-3.236653	<s> Syl_615
-3.687445	<s> Syl_617
-2.838713	<s> Syl_618
-5.066361	<s> Syl_619
-2.463049	<s> Syl_62
-2.935623	<s> Syl_620
-3.326829	<s> Syl_621
-2.342706	<s> Syl_622
-4.793699	<s> Syl_623
-2.653076	<s> Syl_624
-2.765606	<s> Syl_625
-2.853436	<s> Syl_626
-3.63914	<s> Syl_627
-3.502921	<s> Syl_628
-3.662621	<s> Syl_629
-2.439327	<s> Syl_63
-2.954106	<s> Syl_630
-2.983396	<s> Syl_631
-3.537683	<s> Syl_632
-3.031403	<s> Syl_633
-3.1855	<s> Syl_634
-3.111714	<s> Syl_635
-3.193618	<s> Syl_636
-3.162019	<s> Syl_637
-2.922259	<s> Syl_64
-3.079045	<s> Syl_642
-3.876501	<s> Syl_643
-3.025799	<s> Syl_644
-3.201891	<s> Syl_645
-2.868676	<s> Syl_646
-3.072796	<s> Syl_647
-2.762558	<s> Syl_648
-2.94017	<s> Syl_649
-3.111714	<s> Syl_65
-3.118553	<s> Syl_650
-3.575471	<s> Syl_651
-3.876501	<s> Syl_652
-4.498912	<s> Syl_653
-2.900861	<s> Syl_654
-3.838713	<s> Syl_655
-3.455496	<s> Syl_657
-2.905057	<s> Syl_66
-2.922259	<s> Syl_661
-3.39938	<s> Syl_662
-3.412744	<s> Syl_663
-2.753541	<s> Syl_664
-4.072796	<s> Syl_665
-3.349692	<s> Syl_666
-3.63914	<s> Syl_667
-3.085385	<s> Syl_668
-2.827989	<s> Syl_67
-3.177531	<s> Syl_670
-3.154466	<s> Syl_672
-2.94017	<s> Syl_673
-3.1855	<s> Syl_674
-3.39938	<s> Syl_675
-3.771766	<s> Syl_676
-3.255136	<s> Syl_677
-3.30511	<s> Syl_678
-3.386415	<s> Syl_679
-2.835109	<s> Syl_68
-3.245796	<s> Syl_680
-2.949411	<s> Syl_681
-3.201891	<s> Syl_682
-3.079045	<s> Syl_683
-2.849708	<s> Syl_684
-3.803951	<s> Syl_685
-3.519954	<s> Syl_686
-3.139743	<s> Syl_687
-3.502921	<s> Syl_689
-3.1855	<s> Syl_69
-5.066361	<s> Syl_690
-3.519954	<s> Syl_691
-3.63914	<s> Syl_692
-3.771766	<s> Syl_693
-3.218924	<s> Syl_694
-2.909294	<s> Syl_695
-3.455496	<s> Syl_696
-5.066361	<s> Syl_697
-3.616864	<s> Syl_698
-3.741803	<s> Syl_699
-2.944766	<s> Syl_7
-2.048076	<s> Syl_70
-3.595675	<s> Syl_701
-3.771766	<s> Syl_705
-3.771766	<s> Syl_708
-2.860989	<s> Syl_71
-3.274441	<s> Syl_717
-5.066361	<s> Syl_718
-2.677345	<s> Syl_719
-3.227698	<s> Syl_72
-2.716497	<s> Syl_720
-3.193618	<s> Syl_721
-2.677345	<s> Syl_722
-3.373826	<s> Syl_723
-2.917894	<s> Syl_724
-3.294645	<s> Syl_725
-2.978375	<s> Syl_726
-3.09835	<s> Syl_727
-3.1855	<s> Syl_728
-3.326829	<s> Syl_729
-2.807304	<s> Syl_73
-3.616864	<s> Syl_730
-3.373826	<s> Syl_731
-2.541317	<s> Syl_732
-2.800623	<s> Syl_733
-3.177531	<s> Syl_734
-3.63914	<s> Syl_735
-3.079045	<s> Syl_736
-5.066361	<s> Syl_737
-2.872571	<s> Syl_738
-3.48653	<s> Syl_739
-2.454001	<s> Syl_74
-2.963651	<s> Syl_740
-3.118553	<s> Syl_741
-3.349692	<s> Syl_742
-3.09835	<s> Syl_743
-3.014804	<s> Syl_744
-3.687445	<s> Syl_745
-2.935623	<s> Syl_746
-3.009409	<s> Syl_747
-3.33811	<s> Syl_748
-3.713774	<s> Syl_749
-2.922259	<s> Syl_75
-3.255136	<s> Syl_750
-3.963651	<s> Syl_751
-2.298801	<s> Syl_752
-3.294645	<s> Syl_753
-3.502921	<s> Syl_754
-3.386415	<s> Syl_755
-2.988475	<s> Syl_756
-3.440773	<s> Syl_757
-2.896705	<s> Syl_758
-2.148517	<s> Syl_759
-3.502921	<s> Syl_76
-2.70041	<s> Syl_760
-2.58344	<s> Syl_761
-3.963651	<s> Syl_762
-2.868676	<s> Syl_763
-3.556166	<s> Syl_764
-2.794042	<s> Syl_765
-2.730373	<s> Syl_766
-3.025799	<s> Syl_767
-3.025799	<s> Syl_768
-3.556166	<s> Syl_769
-2.39938	<s> Syl_77
-3.361591	<s> Syl_770
-3.255136	<s> Syl_771
-3.020267	<s> Syl_772
-4.793699	<s> Syl_773
-3.963651	<s> Syl_774
-3.274441	<s> Syl_775
-4.072796	<s> Syl_776
-3.020267	<s> Syl_777
-3.326829	<s> Syl_778
-3.091819	<s> Syl_78
-3.412744	<s> Syl_780
-3.162019	<s> Syl_781
-3.236653	<s> Syl_782
-3.162019	<s> Syl_783
-3.876501	<s> Syl_784
-2.983396	<s> Syl_785
-5.066361	<s> Syl_786
-3.373826	<s> Syl_787
-3.264681	<s> Syl_788
-2.827989	<s> Syl_789
-2.79732	<s> Syl_79
-3.537683	<s> Syl_790
-2.949411	<s> Syl_791
-3.147042	<s> Syl_792
-2.753541	<s> Syl_8
-2.575471	<s> Syl_80
-2.954106	<s> Syl_808
-2.872571	<s> Syl_809
-3.519954	<s> Syl_81
-3.154466	<s> Syl_810
-2.973411	<s> Syl_811
-3.30511	<s> Syl_812
-3.294645	<s> Syl_813
-2.705706	<s> Syl_815
-2.978375	<s> Syl_817
-3.274441	<s> Syl_818
-3.03708	<s> Syl_819
-2.411389	<s> Syl_82
-3.386415	<s> Syl_820
-2.876501	<s> Syl_821
-3.042833	<s> Syl_83
-2.917894	<s> Syl_836
-3.014804	<s> Syl_837
-2.905057	<s> Syl_838
-2.926668	<s> Syl_839
-3.162019	<s> Syl_84
-2.632337	<s> Syl_840
-2.571541	<s> Syl_841
-2.88447	<s> Syl_842
-3.917894	<s> Syl_843
-2.968504	<s> Syl_844
-2.968504	<s> Syl_845
-3.326829	<s> Syl_846
-3.009409	<s> Syl_847
-3.455496	<s> Syl_848
-3.193618	<s> Syl_849
-2.460012	<s> Syl_85
-3.201891	<s> Syl_850
-3.218924	<s> Syl_851
-2.842347	<s> Syl_852
-2.931122	<s> Syl_853
-3.00408	<s> Syl_854
-3.1855	<s> Syl_855
-3.020267	<s> Syl_856
-2.507961	<s> Syl_857
-3.440773	<s> Syl_858
-3.025799	<s> Syl_859
-2.120626	<s> Syl_86
-2.501253	<s> Syl_860
-2.978375	<s> Syl_861
-3.373826	<s> Syl_862
-2.423739	<s> Syl_863
-3.048662	<s> Syl_864
-4.793699	<s> Syl_866
-3.361591	<s> Syl_867
-3.09835	<s> Syl_868
-3.147042	<s> Syl_869
-2.667474	<s> Syl_87
-3.1855	<s> Syl_870
-3.042833	<s> Syl_871
-3.33811	<s> Syl_872
-3.616864	<s> Syl_873
-3.803951	<s> Syl_874
-2.905057	<s> Syl_875
-2.655443	<s> Syl_876
-3.154466	<s> Syl_877
-3.162019	<s> Syl_878
-3.537683	<s> Syl_879
-2.721994	<s> Syl_88
-3.386415	<s> Syl_880
-3.556166	<s> Syl_881
-3.020267	<s> Syl_882
-3.361591	<s> Syl_883
-3.876501	<s> Syl_885
-4.793699	<s> Syl_886
-3.294645	<s> Syl_888
-3.771766	<s> Syl_889
-2.730373	<s> Syl_89
-3.556166	<s> Syl_891
-3.741803	<s> Syl_892
-3.455496	<s> Syl_893
-3.48653	<s> Syl_894
-3.803951	<s> Syl_895
-2.993615	<s> Syl_896
-2.954106	<s> Syl_897
-2.988475	<s> Syl_898
-3.30511	<s> Syl_899
-2.448072	<s> Syl_9
-3.349692	<s> Syl_90
-2.988475	<s> Syl_900
-3.236653	<s> Syl_901
-3.147042	<s> Syl_902
-3.294645	<s> Syl_903
-3.39938	<s> Syl_904
-3.091819	<s> Syl_905
-3.139743	<s> Syl_906
-3.236653	<s> Syl_907
-3.662621	<s> Syl_908
-3.162019	<s> Syl_909
-2.585455	<s> Syl_91
-2.983396	<s> Syl_910
-3.876501	<s> Syl_911
-3.139743	<s> Syl_912
-2.993615	<s> Syl_913
-3.455496	<s> Syl_914
-3.386415	<s> Syl_915
-3.373826	<s> Syl_916
-3.132564	<s> Syl_917
-3.227698	<s> Syl_918
-3.294645	<s> Syl_919
-2.251376	<s> Syl_92
-3.125502	<s> Syl_920
-2.993615	<s> Syl_921
-2.641432	<s> Syl_922
-3.440773	<s> Syl_923
-3.125502	<s> Syl_924
-3.245796	<s> Syl_925
-3.042833	<s> Syl_926
-3.502921	<s> Syl_927
-3.373826	<s> Syl_928
-3.33811	<s> Syl_929
-3.09835	<s> Syl_93
-3.349692	<s> Syl_930
-4.498912	<s> Syl_931
-3.713774	<s> Syl_932
-3.838713	<s> Syl_934
-3.373826	<s> Syl_935
-2.601924	<s> Syl_94
-3.020267	<s> Syl_95
-3.03708	<s> Syl_96
-3.838713	<s> Syl_97
-4.793699	<s> Syl_98
-2.892588	<s> Syl_99
-0.6775607	Syl_0 </s>
-2.342023	Syl_0 Syl_0
-3.200776	Syl_0 Syl_1
-2.528626	Syl_0 Syl_107
-1.201051	Syl_0 Syl_11
-3.200776	Syl_0 Syl_113
-2.633327	Syl_0 Syl_116
-1.797037	Syl_0 Syl_12
-3.200776	Syl_0 Syl_125
-3.200776	Syl_0 Syl_130
-3.200776	Syl_0 Syl_134
-3.200776	Syl_0 Syl_139
-2.207211	Syl_0 Syl_140
-3.200776	Syl_0 Syl_148
-2.731964	Syl_0 Syl_149
-2.928114	Syl_0 Syl_15
-2.633327	Syl_0 Syl_155
-2.928114	Syl_0 Syl_158
-2.731964	Syl_0 Syl_159
-1.288881	Syl_0 Syl_161
-1.353339	Syl_0 Syl_162
-2.928114	Syl_0 Syl_179
-2.207211	Syl_0 Syl_182
-3.200776	Syl_0 Syl_200
-2.528626	Syl_0 Syl_204
-2.528626	Syl_0 Syl_205
-3.200776	Syl_0 Syl_215
-3.200776	Syl_0 Syl_216
-2.928114	Syl_0 Syl_221
-1.362113	Syl_0 Syl_224
-3.200776	Syl_0 Syl_234
-3.200776	Syl_0 Syl_237
-2.342023	Syl_0 Syl_247
-2.528626	Syl_0 Syl_256
-2.928114	Syl_0 Syl_26
-1.450249	Syl_0 Syl_27
-3.200776	Syl_0 Syl_270
-3.200776	Syl_0 Syl_273
-2.633327	Syl_0 Syl_279
-2.633327	Syl_0 Syl_297
-2.731964	Syl_0 Syl_300
-3.200776	Syl_0 Syl_301
-2.528626	Syl_0 Syl_303
-2.928114	Syl_0 Syl_304
-2.731964	Syl_0 Syl_307
-3.200776	Syl_0 Syl_309
-3.200776	Syl_0 Syl_312
-2.633327	Syl_0 Syl_315
-2.928114	Syl_0 Syl_318
-3.200776	Syl_0 Syl_322
-3.200776	Syl_0 Syl_328
-2.731964	Syl_0 Syl_33
-3.200776	Syl_0 Syl_333
-2.928114	Syl_0 Syl_336
-3.200776	Syl_0 Syl_337
-3.200776	Syl_0 Syl_341
-2.928114	Syl_0 Syl_349
-2.731964	Syl_0 Syl_350
-2.928114	Syl_0 Syl_351
-2.633327	Syl_0 Syl_354
-3.200776	Syl_0 Syl_356
-3.200776	Syl_0 Syl_360
-1.439525	Syl_0 Syl_361
-2.633327	Syl_0 Syl_362
-1.239396	Syl_0 Syl_366
-2.731964	Syl_0 Syl_378
-3.200776	Syl_0 Syl_388
-2.928114	Syl_0 Syl_391
-2.928114	Syl_0 Syl_394
-3.200776	Syl_0 Syl_405
-3.200776	Syl_0 Syl_409
-3.200776	Syl_0 Syl_412
-3.200776	Syl_0 Syl_425
-2.633327	Syl_0 Syl_431
-2.528626	Syl_0 Syl_435
-2.928114	Syl_0 Syl_437
-2.342023	Syl_0 Syl_438
-2.928114	Syl_0 Syl_439
-3.200776	Syl_0 Syl_440
-3.200776	Syl_0 Syl_445
-1.328033	Syl_0 Syl_451
-3.200776	Syl_0 Syl_467
-3.200776	Syl_0 Syl_468
-2.928114	Syl_0 Syl_51
-3.200776	Syl_0 Syl_542
-1.938366	Syl_0 Syl_547
-2.928114	Syl_0 Syl_59
-3.200776	Syl_0 Syl_6
-3.200776	Syl_0 Syl_612
-2.342023	Syl_0 Syl_63
-2.928114	Syl_0 Syl_642
-1.973128	Syl_0 Syl_682
-3.200776	Syl_0 Syl_686
-3.200776	Syl_0 Syl_722
-2.928114	Syl_0 Syl_732
-2.633327	Syl_0 Syl_734
-1.353339	Syl_0 Syl_761
-3.200776	Syl_0 Syl_768
-3.200776	Syl_0 Syl_773
-3.200776	Syl_0 Syl_776
-2.342023	Syl_0 Syl_8
-1.547159	Syl_0 Syl_80
-3.200776	Syl_0 Syl_818
-3.200776	Syl_0 Syl_837
-2.633327	Syl_0 Syl_841
-1.259917	Syl_0 Syl_849
-3.200776	Syl_0 Syl_85
-1.52083	Syl_0 Syl_851
-3.200776	Syl_0 Syl_881
-2.633327	Syl_0 Syl_882
-2.528626	Syl_0 Syl_9
-2.928114	Syl_0 Syl_904
-3.200776	Syl_0 Syl_91
-3.200776	Syl_0 Syl_916
-1.82186	Syl_0 Syl_923
-3.200776	Syl_0 Syl_96
-0.5750285	Syl_1 </s>
-2.515291	Syl_1 Syl_1
-1.598094	Syl_1 Syl_108
-1.598094	Syl_1 Syl_11
-2.787953	Syl_1 Syl_110
-2.319142	Syl_1 Syl_13
-2.787953	Syl_1 Syl_16
-2.787953	Syl_1 Syl_166
-2.220505	Syl_1 Syl_179
-2.787953	Syl_1 Syl_190
-2.787953	Syl_1 Syl_199
-2.787953	Syl_1 Syl_2
-2.787953	Syl_1 Syl_205
-2.319142	Syl_1 Syl_208
-2.319142	Syl_1 Syl_212
-2.787953	Syl_1 Syl_22
-2.787953	Syl_1 Syl_222
-2.220505	Syl_1 Syl_229
-2.515291	Syl_1 Syl_24
-2.787953	Syl_1 Syl_259
-2.319142	Syl_1 Syl_26
-1.525543	Syl_1 Syl_27
-2.787953	Syl_1 Syl_273
-2.787953	Syl_1 Syl_280
-1.177088	Syl_1 Syl_283
-2.787953	Syl_1 Syl_285
-2.787953	Syl_1 Syl_307
-2.220505	Syl_1 Syl_318
-1.685244	Syl_1 Syl_32
-2.787953	Syl_1 Syl_322
-2.787953	Syl_1 Syl_325
-2.787953	Syl_1 Syl_326
-2.787953	Syl_1 Syl_327
-2.787953	Syl_1 Syl_351
-2.220505	Syl_1 Syl_352
-1.736397	Syl_1 Syl_382
-2.787953	Syl_1 Syl_385
-1.639486	Syl_1 Syl_387
-2.787953	Syl_1 Syl_411
-2.319142	Syl_1 Syl_428
-2.787953	Syl_1 Syl_456
-2.515291	Syl_1 Syl_494
-1.598094	Syl_1 Syl_51
-0.8541567	Syl_1 Syl_54
-2.787953	Syl_1 Syl_546
-2.515291	Syl_1 Syl_547
-2.515291	Syl_1 Syl_55
-2.787953	Syl_1 Syl_6
-2.787953	Syl_1 Syl_653
-0.8134117	Syl_1 Syl_68
-1.685244	Syl_1 Syl_728
-2.515291	Syl_1 Syl_742
-2.787953	Syl_1 Syl_749
-2.787953	Syl_1 Syl_785
-2.115804	Syl_1 Syl_83
-2.319142	Syl_1 Syl_88
-2.787953	Syl_1 Syl_922
-0.4813687	Syl_10 </s>
-1.488903	Syl_10 Syl_10
-2.090963	Syl_10 Syl_100
-2.770618	Syl_10 Syl_108
-2.770618	Syl_10 Syl_11
-2.671981	Syl_10 Syl_116
-2.090963	Syl_10 Syl_124
-2.136721	Syl_10 Syl_139
-3.23943	Syl_10 Syl_142
-2.187873	Syl_10 Syl_179
-1.97702	Syl_10 Syl_204
-2.671981	Syl_10 Syl_205
-2.136721	Syl_10 Syl_215
-1.409722	Syl_10 Syl_220
-2.770618	Syl_10 Syl_229
-3.23943	Syl_10 Syl_233
-2.770618	Syl_10 Syl_237
-1.97702	Syl_10 Syl_241
-3.23943	Syl_10 Syl_247
-1.418865	Syl_10 Syl_255
-3.23943	Syl_10 Syl_27
-2.245865	Syl_10 Syl_271
-2.380677	Syl_10 Syl_279
-1.418865	Syl_10 Syl_280
-1.245865	Syl_10 Syl_288
-3.23943	Syl_10 Syl_300
-2.04957	Syl_10 Syl_303
-2.966768	Syl_10 Syl_304
-3.23943	Syl_10 Syl_306
-3.23943	Syl_10 Syl_307
-3.23943	Syl_10 Syl_309
-1.97702	Syl_10 Syl_313
-2.245865	Syl_10 Syl_316
-1.835691	Syl_10 Syl_319
-2.966768	Syl_10 Syl_32
-1.789933	Syl_10 Syl_33
-2.770618	Syl_10 Syl_337
-2.770618	Syl_10 Syl_340
-2.671981	Syl_10 Syl_351
-1.97702	Syl_10 Syl_357
-3.23943	Syl_10 Syl_372
-2.966768	Syl_10 Syl_38
-1.944835	Syl_10 Syl_388
-1.305633	Syl_10 Syl_391
-3.23943	Syl_10 Syl_395
-2.56728	Syl_10 Syl_4
-2.770618	Syl_10 Syl_400
-2.671981	Syl_10 Syl_403
-3.23943	Syl_10 Syl_41
-2.770618	Syl_10 Syl_416
-3.23943	Syl_10 Syl_419
-2.966768	Syl_10 Syl_43
-2.966768	Syl_10 Syl_438
-3.23943	Syl_10 Syl_44
-3.23943	Syl_10 Syl_443
-1.478179	Syl_10 Syl_465
-2.966768	Syl_10 Syl_48
-1.886843	Syl_10 Syl_50
-2.56728	Syl_10 Syl_51
-2.671981	Syl_10 Syl_510
-2.56728	Syl_10 Syl_52
-2.671981	Syl_10 Syl_53
-2.56728	Syl_10 Syl_54
-3.23943	Syl_10 Syl_550
-2.245865	Syl_10 Syl_56
-3.23943	Syl_10 Syl_59
-2.966768	Syl_10 Syl_591
-2.770618	Syl_10 Syl_60
-2.671981	Syl_10 Syl_622
-2.56728	Syl_10 Syl_63
-3.23943	Syl_10 Syl_697
-2.770618	Syl_10 Syl_7
-1.860514	Syl_10 Syl_70
-3.23943	Syl_10 Syl_732
-2.966768	Syl_10 Syl_755
-1.74854	Syl_10 Syl_756
-2.770618	Syl_10 Syl_759
-3.23943	Syl_10 Syl_761
-2.671981	Syl_10 Syl_770
-1.914872	Syl_10 Syl_776
-2.966768	Syl_10 Syl_780
-1.944835	Syl_10 Syl_80
-2.770618	Syl_10 Syl_82
-2.56728	Syl_10 Syl_821
-3.23943	Syl_10 Syl_849
-2.011782	Syl_10 Syl_854
-3.23943	Syl_10 Syl_856
-2.04957	Syl_10 Syl_857
-2.090963	Syl_10 Syl_858
-3.23943	Syl_10 Syl_859
-3.23943	Syl_10 Syl_86
-2.966768	Syl_10 Syl_872
-2.966768	Syl_10 Syl_880
-3.23943	Syl_10 Syl_907
-2.770618	Syl_10 Syl_914
-2.56728	Syl_10 Syl_922
-2.090963	Syl_10 Syl_923
-0.3848397	Syl_100 </s>
-3.077374	Syl_100 Syl_0
-3.077374	Syl_100 Syl_1
-2.509926	Syl_100 Syl_10
-2.405225	Syl_100 Syl_100
-2.804713	Syl_100 Syl_104
-2.804713	Syl_100 Syl_108
-2.804713	Syl_100 Syl_11
-3.077374	Syl_100 Syl_111
-2.509926	Syl_100 Syl_12
-2.804713	Syl_100 Syl_13
-2.804713	Syl_100 Syl_14
-3.077374	Syl_100 Syl_144
-2.804713	Syl_100 Syl_15
-3.077374	Syl_100 Syl_166
-2.804713	Syl_100 Syl_168
-2.804713	Syl_100 Syl_176
-3.077374	Syl_100 Syl_185
-3.077374	Syl_100 Syl_190
-2.804713	Syl_100 Syl_195
-1.650154	Syl_100 Syl_200
-3.077374	Syl_100 Syl_201
-2.509926	Syl_100 Syl_208
-2.804713	Syl_100 Syl_21
-2.804713	Syl_100 Syl_220
-3.077374	Syl_100 Syl_227
-3.077374	Syl_100 Syl_229
-3.077374	Syl_100 Syl_232
-3.077374	Syl_100 Syl_25
-3.077374	Syl_100 Syl_255
-2.08381	Syl_100 Syl_264
-3.077374	Syl_100 Syl_268
-3.077374	Syl_100 Syl_276
-3.077374	Syl_100 Syl_279
-3.077374	Syl_100 Syl_280
-3.077374	Syl_100 Syl_289
-2.804713	Syl_100 Syl_292
-1.887515	Syl_100 Syl_297
-1.397429	Syl_100 Syl_3
-3.077374	Syl_100 Syl_312
-3.077374	Syl_100 Syl_313
-2.218622	Syl_100 Syl_315
-2.804713	Syl_100 Syl_318
-2.608563	Syl_100 Syl_328
-2.608563	Syl_100 Syl_33
-3.077374	Syl_100 Syl_349
-3.077374	Syl_100 Syl_350
-3.077374	Syl_100 Syl_354
-2.804713	Syl_100 Syl_357
-3.077374	Syl_100 Syl_360
-1.115994	Syl_100 Syl_365
-3.077374	Syl_100 Syl_366
-2.804713	Syl_100 Syl_375
-2.804713	Syl_100 Syl_388
-2.804713	Syl_100 Syl_394
-2.509926	Syl_100 Syl_4
-3.077374	Syl_100 Syl_400
-3.077374	Syl_100 Syl_416
-1.423758	Syl_100 Syl_43
-2.218622	Syl_100 Syl_438
-3.077374	Syl_100 Syl_48
-2.804713	Syl_100 Syl_480
-2.218622	Syl_100 Syl_49
-3.077374	Syl_100 Syl_50
-3.077374	Syl_100 Syl_505
-3.077374	Syl_100 Syl_510
-1.337843	Syl_100 Syl_513
-3.077374	Syl_100 Syl_54
-2.804713	Syl_100 Syl_547
-1.437546	Syl_100 Syl_552
-2.804713	Syl_100 Syl_554
-3.077374	Syl_100 Syl_56
-3.077374	Syl_100 Syl_581
-1.928908	Syl_100 Syl_59
-2.804713	Syl_100 Syl_597
-3.077374	Syl_100 Syl_60
-3.077374	Syl_100 Syl_605
-2.804713	Syl_100 Syl_64
-2.509926	Syl_100 Syl_7
-2.804713	Syl_100 Syl_723
-3.077374	Syl_100 Syl_743
-2.509926	Syl_100 Syl_750
-3.077374	Syl_100 Syl_755
-3.077374	Syl_100 Syl_77
-1.650154	Syl_100 Syl_770
-2.804713	Syl_100 Syl_78
-1.606688	Syl_100 Syl_790
-2.804713	Syl_100 Syl_808
-2.608563	Syl_100 Syl_809
-3.077374	Syl_100 Syl_817
-3.077374	Syl_100 Syl_818
-3.077374	Syl_100 Syl_82
-3.077374	Syl_100 Syl_853
-1.606688	Syl_100 Syl_856
-2.405225	Syl_100 Syl_860
-3.077374	Syl_100 Syl_879
-3.077374	Syl_100 Syl_89
-1.974665	Syl_100 Syl_898
-2.804713	Syl_100 Syl_9
-3.077374	Syl_100 Syl_914
-2.608563	Syl_100 Syl_918
-2.405225	Syl_100 Syl_92
-1.724788	Syl_100 Syl_924
-0.3129292	Syl_101 </s>
-0.3129292	Syl_101 Syl_385
-0.6392018	Syl_102 </s>
-0.6092386	Syl_102 Syl_318
-1.075044	Syl_102 Syl_366
-1.366348	Syl_102 Syl_428
-0.7853298	Syl_102 Syl_443
-1.933797	Syl_102 Syl_53
-1.075044	Syl_102 Syl_66
-1.933797	Syl_102 Syl_853
-1.261647	Syl_102 Syl_920
-0.3891661	Syl_103 </s>
-2.168061	Syl_103 Syl_1
-1.971911	Syl_103 Syl_103
-2.440723	Syl_103 Syl_145
-1.58197	Syl_103 Syl_147
-2.168061	Syl_103 Syl_191
-2.440723	Syl_103 Syl_195
-1.971911	Syl_103 Syl_22
-2.168061	Syl_103 Syl_232
-2.440723	Syl_103 Syl_241
-2.440723	Syl_103 Syl_25
-2.168061	Syl_103 Syl_278
-2.440723	Syl_103 Syl_288
-1.971911	Syl_103 Syl_3
-2.440723	Syl_103 Syl_320
-2.168061	Syl_103 Syl_327
-1.971911	Syl_103 Syl_33
-2.440723	Syl_103 Syl_341
-1.971911	Syl_103 Syl_351
-2.440723	Syl_103 Syl_357
-2.440723	Syl_103 Syl_369
-2.168061	Syl_103 Syl_379
-2.440723	Syl_103 Syl_4
-1.768573	Syl_103 Syl_416
-2.440723	Syl_103 Syl_418
-2.440723	Syl_103 Syl_425
-2.440723	Syl_103 Syl_428
-2.440723	Syl_103 Syl_442
-2.168061	Syl_103 Syl_492
-2.440723	Syl_103 Syl_58
-2.440723	Syl_103 Syl_59
-2.440723	Syl_103 Syl_63
-2.168061	Syl_103 Syl_75
-2.168061	Syl_103 Syl_764
-2.168061	Syl_103 Syl_766
-1.768573	Syl_103 Syl_901
-0.8608923	Syl_103 Syl_903
-1.116165	Syl_103 Syl_909
-2.440723	Syl_103 Syl_930
-1.046625	Syl_104 </s>
-2.371183	Syl_104 Syl_0
-2.371183	Syl_104 Syl_100
-1.512431	Syl_104 Syl_11
-2.371183	Syl_104 Syl_12
-2.371183	Syl_104 Syl_167
-1.803735	Syl_104 Syl_189
-2.098521	Syl_104 Syl_204
-2.371183	Syl_104 Syl_229
-2.371183	Syl_104 Syl_285
-2.371183	Syl_104 Syl_290
-2.371183	Syl_104 Syl_294
-0.4445652	Syl_104 Syl_297
-2.371183	Syl_104 Syl_340
-2.371183	Syl_104 Syl_354
-1.699034	Syl_104 Syl_356
-2.371183	Syl_104 Syl_390
-2.371183	Syl_104 Syl_40
-1.222716	Syl_104 Syl_418
-2.371183	Syl_104 Syl_445
-1.902372	Syl_104 Syl_485
-0.9439629	Syl_104 Syl_500
-1.803735	Syl_104 Syl_503
-2.371183	Syl_104 Syl_506
-2.371183	Syl_104 Syl_543
-2.098521	Syl_104 Syl_56
-1.699034	Syl_104 Syl_677
-1.902372	Syl_104 Syl_7
-2.371183	Syl_104 Syl_813
-1.803735	Syl_104 Syl_82
-1.268474	Syl_104 Syl_850
-2.371183	Syl_104 Syl_852
-0.7694939	Syl_105 </s>
-2.798774	Syl_105 Syl_103
-0.9021195	Syl_105 Syl_105
-0.9179137	Syl_105 Syl_107
-2.329963	Syl_105 Syl_145
-2.126625	Syl_105 Syl_153
-2.526113	Syl_105 Syl_189
-2.126625	Syl_105 Syl_191
-2.526113	Syl_105 Syl_195
-1.059243	Syl_105 Syl_267
-2.798774	Syl_105 Syl_304
-2.798774	Syl_105 Syl_306
-2.526113	Syl_105 Syl_310
-2.798774	Syl_105 Syl_318
-2.329963	Syl_105 Syl_321
-2.798774	Syl_105 Syl_322
-2.798774	Syl_105 Syl_326
-2.526113	Syl_105 Syl_33
-2.798774	Syl_105 Syl_331
-2.231326	Syl_105 Syl_345
-2.798774	Syl_105 Syl_356
-2.526113	Syl_105 Syl_36
-2.798774	Syl_105 Syl_374
-2.526113	Syl_105 Syl_378
-2.798774	Syl_105 Syl_379
-1.650308	Syl_105 Syl_391
-2.526113	Syl_105 Syl_430
-2.126625	Syl_105 Syl_449
-2.798774	Syl_105 Syl_457
-2.526113	Syl_105 Syl_476
-1.747218	Syl_105 Syl_480
-1.696065	Syl_105 Syl_488
-2.526113	Syl_105 Syl_492
-2.798774	Syl_105 Syl_503
-2.798774	Syl_105 Syl_54
-2.526113	Syl_105 Syl_543
-0.7058249	Syl_105 Syl_547
-1.349277	Syl_105 Syl_56
-2.798774	Syl_105 Syl_594
-2.231326	Syl_105 Syl_6
-2.798774	Syl_105 Syl_614
-2.798774	Syl_105 Syl_649
-2.798774	Syl_105 Syl_73
-2.798774	Syl_105 Syl_743
-2.798774	Syl_105 Syl_766
-2.798774	Syl_105 Syl_776
-2.526113	Syl_105 Syl_821
-2.126625	Syl_105 Syl_88
-2.798774	Syl_105 Syl_899
-2.231326	Syl_105 Syl_901
-2.526113	Syl_105 Syl_903
-2.798774	Syl_105 Syl_908
-2.798774	Syl_105 Syl_909
-2.798774	Syl_105 Syl_92
-2.798774	Syl_105 Syl_920
-2.798774	Syl_105 Syl_94
-0.6674529	Syl_106 </s>
-1.62606	Syl_106 Syl_106
-2.81592	Syl_106 Syl_125
-2.81592	Syl_106 Syl_15
-1.033985	Syl_106 Syl_189
-2.543258	Syl_106 Syl_193
-2.248471	Syl_106 Syl_21
-2.81592	Syl_106 Syl_239
-2.81592	Syl_106 Syl_25
-2.543258	Syl_106 Syl_27
-0.8750613	Syl_106 Syl_274
-1.111151	Syl_106 Syl_280
-2.81592	Syl_106 Syl_298
-2.543258	Syl_106 Syl_3
-2.543258	Syl_106 Syl_312
-2.248471	Syl_106 Syl_315
-2.543258	Syl_106 Syl_316
-2.81592	Syl_106 Syl_321
-1.667453	Syl_106 Syl_338
-1.764363	Syl_106 Syl_341
-2.81592	Syl_106 Syl_350
-2.81592	Syl_106 Syl_357
-2.81592	Syl_106 Syl_361
-2.543258	Syl_106 Syl_365
-2.81592	Syl_106 Syl_388
-2.81592	Syl_106 Syl_391
-1.521325	Syl_106 Syl_404
-2.81592	Syl_106 Syl_436
-1.123385	Syl_106 Syl_452
-2.81592	Syl_106 Syl_476
-2.543258	Syl_106 Syl_481
-2.81592	Syl_106 Syl_490
-1.220295	Syl_106 Syl_50
-2.81592	Syl_106 Syl_60
-1.287242	Syl_106 Syl_61
-2.543258	Syl_106 Syl_612
-2.81592	Syl_106 Syl_62
-2.81592	Syl_106 Syl_623
-2.543258	Syl_106 Syl_63
-2.81592	Syl_106 Syl_644
-2.543258	Syl_106 Syl_67
-2.14377	Syl_106 Syl_773
-1.388699	Syl_106 Syl_778
-1.764363	Syl_106 Syl_860
-2.81592	Syl_106 Syl_898
-2.347108	Syl_106 Syl_902
-1.55351	Syl_106 Syl_923
-0.2770959	Syl_107 </s>
-1.734861	Syl_107 Syl_10
-2.997272	Syl_107 Syl_100
-2.997272	Syl_107 Syl_105
-1.116411	Syl_107 Syl_107
-2.997272	Syl_107 Syl_135
-2.997272	Syl_107 Syl_149
-2.429823	Syl_107 Syl_188
-2.997272	Syl_107 Syl_198
-2.429823	Syl_107 Syl_224
-2.72461	Syl_107 Syl_230
-2.997272	Syl_107 Syl_239
-2.72461	Syl_107 Syl_252
-2.72461	Syl_107 Syl_268
-2.52846	Syl_107 Syl_297
-2.52846	Syl_107 Syl_300
-2.429823	Syl_107 Syl_303
-2.997272	Syl_107 Syl_311
-1.570051	Syl_107 Syl_33
-1.848805	Syl_107 Syl_338
-2.997272	Syl_107 Syl_341
-1.158609	Syl_107 Syl_383
-1.108442	Syl_107 Syl_390
-2.997272	Syl_107 Syl_397
-2.52846	Syl_107 Syl_429
-2.429823	Syl_107 Syl_44
-2.52846	Syl_107 Syl_452
-1.945715	Syl_107 Syl_46
-1.304737	Syl_107 Syl_48
-1.807412	Syl_107 Syl_481
-2.429823	Syl_107 Syl_50
-2.429823	Syl_107 Syl_53
-2.997272	Syl_107 Syl_547
-2.997272	Syl_107 Syl_576
-2.997272	Syl_107 Syl_591
-2.72461	Syl_107 Syl_63
-2.997272	Syl_107 Syl_666
-2.997272	Syl_107 Syl_670
-2.997272	Syl_107 Syl_677
-2.72461	Syl_107 Syl_69
-2.429823	Syl_107 Syl_7
-1.734861	Syl_107 Syl_740
-2.997272	Syl_107 Syl_750
-2.997272	Syl_107 Syl_818
-2.997272	Syl_107 Syl_850
-2.997272	Syl_107 Syl_902
-0.4387056	Syl_108 </s>
-0.9748046	Syl_108 Syl_108
-2.191485	Syl_108 Syl_11
-2.863634	Syl_108 Syl_177
-1.715167	Syl_108 Syl_182
-2.296186	Syl_108 Syl_206
-2.863634	Syl_108 Syl_212
-2.394823	Syl_108 Syl_232
-2.394823	Syl_108 Syl_241
-2.590972	Syl_108 Syl_247
-2.863634	Syl_108 Syl_25
-2.590972	Syl_108 Syl_27
-2.863634	Syl_108 Syl_283
-2.394823	Syl_108 Syl_295
-2.394823	Syl_108 Syl_301
-2.863634	Syl_108 Syl_309
-2.590972	Syl_108 Syl_310
-2.590972	Syl_108 Syl_336
-2.863634	Syl_108 Syl_347
-1.673775	Syl_108 Syl_351
-2.590972	Syl_108 Syl_352
-1.870069	Syl_108 Syl_354
-0.9908915	Syl_108 Syl_363
-2.394823	Syl_108 Syl_393
-2.863634	Syl_108 Syl_394
-2.863634	Syl_108 Syl_399
-2.296186	Syl_108 Syl_432
-2.863634	Syl_108 Syl_435
-2.296186	Syl_108 Syl_459
-2.863634	Syl_108 Syl_46
-2.863634	Syl_108 Syl_483
-2.590972	Syl_108 Syl_492
-2.863634	Syl_108 Syl_506
-2.394823	Syl_108 Syl_507
-2.590972	Syl_108 Syl_547
-1.061955	Syl_108 Syl_60
-2.863634	Syl_108 Syl_62
-2.863634	Syl_108 Syl_627
-2.296186	Syl_108 Syl_662
-2.863634	Syl_108 Syl_678
-2.590972	Syl_108 Syl_727
-2.191485	Syl_108 Syl_746
-1.210017	Syl_108 Syl_750
-2.590972	Syl_108 Syl_756
-2.296186	Syl_108 Syl_77
-2.296186	Syl_108 Syl_809
-2.863634	Syl_108 Syl_842
-2.863634	Syl_108 Syl_849
-2.590972	Syl_108 Syl_850
-2.590972	Syl_108 Syl_859
-2.863634	Syl_108 Syl_873
-2.863634	Syl_108 Syl_875
-2.296186	Syl_108 Syl_880
-2.863634	Syl_108 Syl_883
-2.863634	Syl_108 Syl_9
-2.590972	Syl_108 Syl_902
-1.601224	Syl_108 Syl_914
-2.863634	Syl_108 Syl_917
-2.590972	Syl_108 Syl_922
-2.863634	Syl_108 Syl_930
-0.8009595	Syl_109 </s>
-2.781935	Syl_109 Syl_103
-2.781935	Syl_109 Syl_106
-1.042404	Syl_109 Syl_109
-1.679226	Syl_109 Syl_11
-2.781935	Syl_109 Syl_12
-2.781935	Syl_109 Syl_125
-2.781935	Syl_109 Syl_130
-2.781935	Syl_109 Syl_137
-1.291046	Syl_109 Syl_16
-2.781935	Syl_109 Syl_176
-2.214487	Syl_109 Syl_186
-2.781935	Syl_109 Syl_195
-1.378196	Syl_109 Syl_25
-2.214487	Syl_109 Syl_27
-0.8481386	Syl_109 Syl_279
-2.509274	Syl_109 Syl_306
-2.509274	Syl_109 Syl_312
-2.509274	Syl_109 Syl_315
-2.509274	Syl_109 Syl_328
-2.781935	Syl_109 Syl_338
-2.509274	Syl_109 Syl_34
-2.781935	Syl_109 Syl_341
-1.923183	Syl_109 Syl_342
-2.214487	Syl_109 Syl_35
-1.48734	Syl_109 Syl_353
-2.313124	Syl_109 Syl_366
-1.592076	Syl_109 Syl_387
-2.313124	Syl_109 Syl_390
-2.781935	Syl_109 Syl_400
-2.781935	Syl_109 Syl_432
-2.509274	Syl_109 Syl_438
-2.781935	Syl_109 Syl_439
-2.313124	Syl_109 Syl_442
-2.214487	Syl_109 Syl_451
-2.781935	Syl_109 Syl_457
-2.781935	Syl_109 Syl_481
-1.679226	Syl_109 Syl_505
-2.509274	Syl_109 Syl_507
-2.781935	Syl_109 Syl_54
-1.78837	Syl_109 Syl_6
-2.781935	Syl_109 Syl_614
-1.128318	Syl_109 Syl_63
-1.78837	Syl_109 Syl_763
-1.271741	Syl_109 Syl_782
-2.781935	Syl_109 Syl_786
-2.509274	Syl_109 Syl_788
-0.980256	Syl_109 Syl_837
-2.781935	Syl_109 Syl_915
-0.1796078	Syl_11 </s>
-2.940807	Syl_11 Syl_10
-3.045508	Syl_11 Syl_109
-2.561399	Syl_11 Syl_11
-3.612956	Syl_11 Syl_110
-3.340295	Syl_11 Syl_116
-2.209217	Syl_11 Syl_124
-2.318362	Syl_11 Syl_129
-3.612956	Syl_11 Syl_168
-3.340295	Syl_11 Syl_172
-3.340295	Syl_11 Syl_173
-3.612956	Syl_11 Syl_181
-2.102762	Syl_11 Syl_184
-2.318362	Syl_11 Syl_188
-3.340295	Syl_11 Syl_190
-3.612956	Syl_11 Syl_199
-2.561399	Syl_11 Syl_200
-3.612956	Syl_11 Syl_201
-3.045508	Syl_11 Syl_203
-2.234041	Syl_11 Syl_204
-1.071793	Syl_11 Syl_205
-3.144145	Syl_11 Syl_206
-3.340295	Syl_11 Syl_209
-2.16346	Syl_11 Syl_213
-3.612956	Syl_11 Syl_214
-3.612956	Syl_11 Syl_228
-2.561399	Syl_11 Syl_233
-2.940807	Syl_11 Syl_234
-3.340295	Syl_11 Syl_26
-3.144145	Syl_11 Syl_27
-3.612956	Syl_11 Syl_276
-3.612956	Syl_11 Syl_288
-3.340295	Syl_11 Syl_292
-3.612956	Syl_11 Syl_295
-3.045508	Syl_11 Syl_296
-2.619391	Syl_11 Syl_301
-3.612956	Syl_11 Syl_303
-3.612956	Syl_11 Syl_307
-3.612956	Syl_11 Syl_308
-3.612956	Syl_11 Syl_314
-3.612956	Syl_11 Syl_32
-1.724127	Syl_11 Syl_33
-3.612956	Syl_11 Syl_351
-3.340295	Syl_11 Syl_361
-3.612956	Syl_11 Syl_365
-3.340295	Syl_11 Syl_369
-2.350546	Syl_11 Syl_378
-3.045508	Syl_11 Syl_394
-3.045508	Syl_11 Syl_431
-3.612956	Syl_11 Syl_435
-1.933011	Syl_11 Syl_438
-2.102762	Syl_11 Syl_444
-2.385308	Syl_11 Syl_464
-3.045508	Syl_11 Syl_47
-3.612956	Syl_11 Syl_485
-2.464489	Syl_11 Syl_495
-3.045508	Syl_11 Syl_50
-3.340295	Syl_11 Syl_500
-2.754204	Syl_11 Syl_511
-2.510247	Syl_11 Syl_512
-2.561399	Syl_11 Syl_53
-2.017332	Syl_11 Syl_535
-2.350546	Syl_11 Syl_54
-3.612956	Syl_11 Syl_550
-2.561399	Syl_11 Syl_575
-3.340295	Syl_11 Syl_576
-3.612956	Syl_11 Syl_582
-2.561399	Syl_11 Syl_59
-3.612956	Syl_11 Syl_591
-3.612956	Syl_11 Syl_593
-3.045508	Syl_11 Syl_6
-3.612956	Syl_11 Syl_605
-3.340295	Syl_11 Syl_608
-3.612956	Syl_11 Syl_612
-3.045508	Syl_11 Syl_614
-3.612956	Syl_11 Syl_624
-3.612956	Syl_11 Syl_627
-1.987368	Syl_11 Syl_63
-2.423097	Syl_11 Syl_64
-3.612956	Syl_11 Syl_642
-3.612956	Syl_11 Syl_647
-3.612956	Syl_11 Syl_648
-3.144145	Syl_11 Syl_65
-3.144145	Syl_11 Syl_664
-2.385308	Syl_11 Syl_668
-2.510247	Syl_11 Syl_694
-3.340295	Syl_11 Syl_7
-2.084278	Syl_11 Syl_70
-1.686338	Syl_11 Syl_71
-3.144145	Syl_11 Syl_719
-2.561399	Syl_11 Syl_725
-2.561399	Syl_11 Syl_726
-3.045508	Syl_11 Syl_727
-3.612956	Syl_11 Syl_728
-3.340295	Syl_11 Syl_740
-3.144145	Syl_11 Syl_749
-3.612956	Syl_11 Syl_758
-2.464489	Syl_11 Syl_769
-3.340295	Syl_11 Syl_770
-1.920421	Syl_11 Syl_82
-3.612956	Syl_11 Syl_846
-3.340295	Syl_11 Syl_85
-3.612956	Syl_11 Syl_857
-3.612956	Syl_11 Syl_858
-3.612956	Syl_11 Syl_872
-3.612956	Syl_11 Syl_875
-3.612956	Syl_11 Syl_881
-3.045508	Syl_11 Syl_883
-3.612956	Syl_11 Syl_898
-3.340295	Syl_11 Syl_9
-3.612956	Syl_11 Syl_910
-3.612956	Syl_11 Syl_919
-2.122067	Syl_11 Syl_92
-3.612956	Syl_11 Syl_926
-3.612956	Syl_11 Syl_932
-3.045508	Syl_11 Syl_97
-0.1699309	Syl_110 </s>
-2.169656	Syl_110 Syl_11
-0.7424357	Syl_110 Syl_110
-1.602208	Syl_110 Syl_15
-2.169656	Syl_110 Syl_213
-1.896994	Syl_110 Syl_25
-2.169656	Syl_110 Syl_298
-1.497507	Syl_110 Syl_390
-2.169656	Syl_110 Syl_463
-2.169656	Syl_110 Syl_754
-0.3828513	Syl_111 </s>
-1.092545	Syl_111 Syl_111
-2.144102	Syl_111 Syl_136
-2.144102	Syl_111 Syl_162
-1.471953	Syl_111 Syl_176
-2.144102	Syl_111 Syl_195
-0.9542425	Syl_111 Syl_321
-1.87144	Syl_111 Syl_350
-1.87144	Syl_111 Syl_374
-2.144102	Syl_111 Syl_394
-2.144102	Syl_111 Syl_408
-1.87144	Syl_111 Syl_431
-1.576653	Syl_111 Syl_442
-2.144102	Syl_111 Syl_464
-1.576653	Syl_111 Syl_614
-2.144102	Syl_111 Syl_662
-2.144102	Syl_111 Syl_695
-0.9956352	Syl_111 Syl_786
-2.144102	Syl_111 Syl_80
-1.576653	Syl_111 Syl_881
-0.6045777	Syl_112 </s>
-0.8763183	Syl_112 Syl_112
-2.386513	Syl_112 Syl_123
-0.8763183	Syl_112 Syl_144
-1.917701	Syl_112 Syl_200
-2.113851	Syl_112 Syl_213
-0.8763183	Syl_112 Syl_280
-2.113851	Syl_112 Syl_307
-2.386513	Syl_112 Syl_320
-1.819064	Syl_112 Syl_338
-1.917701	Syl_112 Syl_340
-1.819064	Syl_112 Syl_363
-2.386513	Syl_112 Syl_381
-2.386513	Syl_112 Syl_413
-1.917701	Syl_112 Syl_43
-2.386513	Syl_112 Syl_431
-2.386513	Syl_112 Syl_450
-2.386513	Syl_112 Syl_49
-1.283804	Syl_112 Syl_503
-2.386513	Syl_112 Syl_544
-2.386513	Syl_112 Syl_578
-2.386513	Syl_112 Syl_632
-2.113851	Syl_112 Syl_7
-2.113851	Syl_112 Syl_759
-1.819064	Syl_112 Syl_761
-1.819064	Syl_112 Syl_849
-1.238046	Syl_112 Syl_923
-0.3171168	Syl_113 </s>
-2.666981	Syl_113 Syl_124
-1.994831	Syl_113 Syl_25
-0.8557561	Syl_113 Syl_33
-1.994831	Syl_113 Syl_336
-1.564271	Syl_113 Syl_361
-2.666981	Syl_113 Syl_369
-2.666981	Syl_113 Syl_37
-2.394319	Syl_113 Syl_377
-2.666981	Syl_113 Syl_378
-1.372386	Syl_113 Syl_402
-2.394319	Syl_113 Syl_408
-2.099532	Syl_113 Syl_438
-2.394319	Syl_113 Syl_464
-1.176091	Syl_113 Syl_47
-2.666981	Syl_113 Syl_549
-2.666981	Syl_113 Syl_591
-2.394319	Syl_113 Syl_649
-2.666981	Syl_113 Syl_668
-2.666981	Syl_113 Syl_7
-2.394319	Syl_113 Syl_743
-2.099532	Syl_113 Syl_758
-2.666981	Syl_113 Syl_759
-1.994831	Syl_113 Syl_764
-1.994831	Syl_113 Syl_766
-2.394319	Syl_113 Syl_8
-2.099532	Syl_113 Syl_872
-2.099532	Syl_113 Syl_880
-2.394319	Syl_113 Syl_89
-2.666981	Syl_113 Syl_901
-1.138303	Syl_113 Syl_93
-0.2898458	Syl_114 </s>
-1.641716	Syl_114 Syl_13
-1.740353	Syl_114 Syl_14
-2.209165	Syl_114 Syl_162
-2.209165	Syl_114 Syl_174
-2.209165	Syl_114 Syl_195
-2.209165	Syl_114 Syl_268
-1.060698	Syl_114 Syl_321
-1.641716	Syl_114 Syl_326
-1.936503	Syl_114 Syl_341
-1.936503	Syl_114 Syl_350
-0.8054253	Syl_114 Syl_449
-1.936503	Syl_114 Syl_64
-2.209165	Syl_114 Syl_71
-2.209165	Syl_114 Syl_776
-2.209165	Syl_114 Syl_80
-1.641716	Syl_114 Syl_883
-2.209165	Syl_114 Syl_915
-2.209165	Syl_114 Syl_93
-0.677632	Syl_116 </s>
-2.71779	Syl_116 Syl_1
-2.423003	Syl_116 Syl_100
-2.990452	Syl_116 Syl_108
-2.990452	Syl_116 Syl_11
-2.423003	Syl_116 Syl_116
-2.990452	Syl_116 Syl_123
-2.52164	Syl_116 Syl_149
-2.990452	Syl_116 Syl_153
-2.52164	Syl_116 Syl_156
-2.990452	Syl_116 Syl_159
-0.9388948	Syl_116 Syl_161
-2.990452	Syl_116 Syl_163
-2.990452	Syl_116 Syl_166
-2.990452	Syl_116 Syl_167
-2.52164	Syl_116 Syl_169
-1.394827	Syl_116 Syl_18
-2.990452	Syl_116 Syl_203
-2.52164	Syl_116 Syl_204
-2.71779	Syl_116 Syl_205
-2.71779	Syl_116 Syl_207
-2.131699	Syl_116 Syl_21
-2.990452	Syl_116 Syl_224
-2.990452	Syl_116 Syl_229
-2.71779	Syl_116 Syl_235
-2.52164	Syl_116 Syl_245
-2.423003	Syl_116 Syl_255
-2.990452	Syl_116 Syl_26
-2.990452	Syl_116 Syl_264
-2.423003	Syl_116 Syl_280
-2.990452	Syl_116 Syl_285
-2.990452	Syl_116 Syl_297
-2.990452	Syl_116 Syl_300
-1.160744	Syl_116 Syl_303
-1.198532	Syl_116 Syl_309
-1.540955	Syl_116 Syl_311
-2.990452	Syl_116 Syl_312
-2.990452	Syl_116 Syl_313
-2.71779	Syl_116 Syl_323
-2.71779	Syl_116 Syl_325
-2.131699	Syl_116 Syl_33
-2.990452	Syl_116 Syl_330
-2.131699	Syl_116 Syl_334
-2.71779	Syl_116 Syl_337
-2.990452	Syl_116 Syl_341
-2.318302	Syl_116 Syl_347
-2.52164	Syl_116 Syl_363
-2.423003	Syl_116 Syl_365
-2.423003	Syl_116 Syl_371
-2.423003	Syl_116 Syl_379
-2.990452	Syl_116 Syl_383
-2.423003	Syl_116 Syl_384
-2.71779	Syl_116 Syl_4
-2.52164	Syl_116 Syl_405
-1.841985	Syl_116 Syl_406
-2.990452	Syl_116 Syl_416
-2.990452	Syl_116 Syl_417
-2.71779	Syl_116 Syl_428
-2.423003	Syl_116 Syl_429
-2.423003	Syl_116 Syl_435
-2.990452	Syl_116 Syl_439
-2.990452	Syl_116 Syl_452
-2.990452	Syl_116 Syl_453
-2.990452	Syl_116 Syl_457
-2.990452	Syl_116 Syl_46
-2.423003	Syl_116 Syl_47
-2.990452	Syl_116 Syl_48
-2.423003	Syl_116 Syl_50
-2.990452	Syl_116 Syl_504
-2.71779	Syl_116 Syl_513
-2.71779	Syl_116 Syl_53
-2.423003	Syl_116 Syl_54
-2.71779	Syl_116 Syl_55
-2.71779	Syl_116 Syl_56
-2.990452	Syl_116 Syl_575
-1.887742	Syl_116 Syl_59
-2.71779	Syl_116 Syl_591
-2.318302	Syl_116 Syl_592
-2.71779	Syl_116 Syl_594
-2.990452	Syl_116 Syl_6
-2.423003	Syl_116 Syl_60
-2.990452	Syl_116 Syl_606
-2.990452	Syl_116 Syl_618
-1.996887	Syl_116 Syl_63
-2.990452	Syl_116 Syl_64
-2.990452	Syl_116 Syl_67
-1.208516	Syl_116 Syl_7
-2.423003	Syl_116 Syl_71
-1.134415	Syl_116 Syl_719
-1.938895	Syl_116 Syl_731
-2.990452	Syl_116 Syl_738
-2.990452	Syl_116 Syl_740
-2.990452	Syl_116 Syl_753
-2.71779	Syl_116 Syl_758
-1.996887	Syl_116 Syl_77
-2.990452	Syl_116 Syl_80
-2.71779	Syl_116 Syl_82
-2.318302	Syl_116 Syl_847
-2.318302	Syl_116 Syl_854
-2.990452	Syl_116 Syl_859
-2.990452	Syl_116 Syl_880
-2.990452	Syl_116 Syl_9
-2.990452	Syl_116 Syl_917
-2.990452	Syl_116 Syl_92
-2.990452	Syl_116 Syl_920
-2.990452	Syl_116 Syl_923
-2.71779	Syl_116 Syl_96
-1.102709	Syl_117 </s>
-1.102709	Syl_117 Syl_11
-1.102709	Syl_117 Syl_188
-0.5352608	Syl_117 Syl_452
-0.5352608	Syl_117 Syl_499
-1.237533	Syl_118 </s>
-1.510195	Syl_118 Syl_158
-1.237533	Syl_118 Syl_188
-1.510195	Syl_118 Syl_323
-1.041383	Syl_118 Syl_333
-1.237533	Syl_118 Syl_359
-1.510195	Syl_118 Syl_363
-1.510195	Syl_118 Syl_369
-1.510195	Syl_118 Syl_384
-1.510195	Syl_118 Syl_426
-1.510195	Syl_118 Syl_499
-1.510195	Syl_118 Syl_51
-1.237533	Syl_118 Syl_55
-1.510195	Syl_118 Syl_614
-1.510195	Syl_118 Syl_681
-1.510195	Syl_118 Syl_73
-0.6365068	Syl_12 </s>
-3.11131	Syl_12 Syl_116
-1.339593	Syl_12 Syl_12
-1.339593	Syl_12 Syl_125
-3.11131	Syl_12 Syl_129
-1.786751	Syl_12 Syl_130
-2.838648	Syl_12 Syl_15
-1.444329	Syl_12 Syl_159
-3.11131	Syl_12 Syl_162
-2.838648	Syl_12 Syl_178
-2.059753	Syl_12 Syl_179
-2.252557	Syl_12 Syl_233
-2.059753	Syl_12 Syl_234
-3.11131	Syl_12 Syl_24
-3.11131	Syl_12 Syl_25
-2.838648	Syl_12 Syl_26
-2.543861	Syl_12 Syl_264
-1.62042	Syl_12 Syl_27
-1.329374	Syl_12 Syl_273
-2.838648	Syl_12 Syl_279
-2.838648	Syl_12 Syl_28
-2.838648	Syl_12 Syl_286
-2.838648	Syl_12 Syl_29
-3.11131	Syl_12 Syl_300
-3.11131	Syl_12 Syl_304
-3.11131	Syl_12 Syl_306
-2.838648	Syl_12 Syl_308
-3.11131	Syl_12 Syl_312
-1.500445	Syl_12 Syl_315
-1.758723	Syl_12 Syl_318
-3.11131	Syl_12 Syl_324
-3.11131	Syl_12 Syl_33
-3.11131	Syl_12 Syl_330
-2.642498	Syl_12 Syl_339
-1.444329	Syl_12 Syl_351
-3.11131	Syl_12 Syl_352
-2.838648	Syl_12 Syl_354
-2.838648	Syl_12 Syl_368
-3.11131	Syl_12 Syl_377
-3.11131	Syl_12 Syl_384
-3.11131	Syl_12 Syl_405
-2.838648	Syl_12 Syl_412
-3.11131	Syl_12 Syl_443
-2.543861	Syl_12 Syl_445
-3.11131	Syl_12 Syl_451
-1.92145	Syl_12 Syl_467
-3.11131	Syl_12 Syl_47
-3.11131	Syl_12 Syl_492
-2.838648	Syl_12 Syl_505
-3.11131	Syl_12 Syl_506
-3.11131	Syl_12 Syl_509
-2.059753	Syl_12 Syl_51
-3.11131	Syl_12 Syl_52
-3.11131	Syl_12 Syl_56
-3.11131	Syl_12 Syl_596
-3.11131	Syl_12 Syl_60
-1.191991	Syl_12 Syl_697
-0.6661775	Syl_12 Syl_732
-2.543861	Syl_12 Syl_768
-3.11131	Syl_12 Syl_776
-1.350059	Syl_12 Syl_782
-2.838648	Syl_12 Syl_784
-2.838648	Syl_12 Syl_8
-2.543861	Syl_12 Syl_80
-3.11131	Syl_12 Syl_82
-2.543861	Syl_12 Syl_821
-2.059753	Syl_12 Syl_85
-2.838648	Syl_12 Syl_9
-2.117745	Syl_12 Syl_904
-0.1268732	Syl_120 </s>
-1.750866	Syl_120 Syl_10
-1.750866	Syl_120 Syl_179
-2.023528	Syl_120 Syl_188
-2.023528	Syl_120 Syl_228
-2.023528	Syl_120 Syl_25
-2.023528	Syl_120 Syl_297
-2.023528	Syl_120 Syl_312
-2.023528	Syl_120 Syl_45
-2.023528	Syl_120 Syl_547
-2.023528	Syl_120 Syl_612
-2.023528	Syl_120 Syl_768
-1.164775	Syl_120 Syl_856
-1.077595	Syl_121 </s>
-1.546407	Syl_121 Syl_11
-1.546407	Syl_121 Syl_12
-1.546407	Syl_121 Syl_121
-1.546407	Syl_121 Syl_124
-1.546407	Syl_121 Syl_125
-1.546407	Syl_121 Syl_130
-1.546407	Syl_121 Syl_22
-0.9789583	Syl_121 Syl_245
-1.546407	Syl_121 Syl_352
-1.546407	Syl_121 Syl_405
-1.546407	Syl_121 Syl_476
-1.546407	Syl_121 Syl_51
-1.546407	Syl_121 Syl_56
-1.273745	Syl_121 Syl_646
-1.546407	Syl_121 Syl_759
-1.546407	Syl_121 Syl_775
-1.273745	Syl_121 Syl_82
-1.146128	Syl_122 </s>
-1.572244	Syl_122 Syl_1
-0.9912261	Syl_122 Syl_10
-1.867031	Syl_122 Syl_108
-1.867031	Syl_122 Syl_11
-1.467543	Syl_122 Syl_163
-1.572244	Syl_122 Syl_192
-2.139693	Syl_122 Syl_225
-2.139693	Syl_122 Syl_234
-1.467543	Syl_122 Syl_25
-2.139693	Syl_122 Syl_26
-1.867031	Syl_122 Syl_33
-2.139693	Syl_122 Syl_337
-1.572244	Syl_122 Syl_36
-2.139693	Syl_122 Syl_362
-1.28094	Syl_122 Syl_429
-1.572244	Syl_122 Syl_438
-2.139693	Syl_122 Syl_503
-1.867031	Syl_122 Syl_54
-1.036984	Syl_122 Syl_56
-0.7124725	Syl_122 Syl_63
-2.139693	Syl_122 Syl_662
-1.670881	Syl_122 Syl_71
-2.139693	Syl_122 Syl_722
-2.139693	Syl_122 Syl_753
-2.139693	Syl_122 Syl_756
-1.867031	Syl_122 Syl_768
-2.139693	Syl_122 Syl_82
-0.1705588	Syl_123 </s>
-1.835021	Syl_123 Syl_1
-2.421112	Syl_123 Syl_10
-2.693774	Syl_123 Syl_108
-2.693774	Syl_123 Syl_15
-2.693774	Syl_123 Syl_153
-2.021624	Syl_123 Syl_163
-2.693774	Syl_123 Syl_169
-2.421112	Syl_123 Syl_179
-2.421112	Syl_123 Syl_18
-1.369216	Syl_123 Syl_182
-2.224962	Syl_123 Syl_229
-2.693774	Syl_123 Syl_234
-2.126325	Syl_123 Syl_248
-2.693774	Syl_123 Syl_259
-2.693774	Syl_123 Syl_30
-2.693774	Syl_123 Syl_323
-2.693774	Syl_123 Syl_335
-2.421112	Syl_123 Syl_372
-2.693774	Syl_123 Syl_385
-2.693774	Syl_123 Syl_4
-2.693774	Syl_123 Syl_405
-2.126325	Syl_123 Syl_429
-2.693774	Syl_123 Syl_435
-2.693774	Syl_123 Syl_494
-2.126325	Syl_123 Syl_50
-2.421112	Syl_123 Syl_510
-1.431364	Syl_123 Syl_527
-2.693774	Syl_123 Syl_56
-2.693774	Syl_123 Syl_581
-2.693774	Syl_123 Syl_584
-1.341187	Syl_123 Syl_610
-2.126325	Syl_123 Syl_62
-2.421112	Syl_123 Syl_63
-2.693774	Syl_123 Syl_66
-2.224962	Syl_123 Syl_777
-2.693774	Syl_123 Syl_78
-2.693774	Syl_123 Syl_82
-2.693774	Syl_123 Syl_821
-2.693774	Syl_123 Syl_85
-2.693774	Syl_123 Syl_852
-2.224962	Syl_123 Syl_9
-0.2338419	Syl_124 </s>
-2.586768	Syl_124 Syl_116
-2.586768	Syl_124 Syl_126
-1.756721	Syl_124 Syl_136
-1.480514	Syl_124 Syl_154
-2.586768	Syl_124 Syl_168
-2.85943	Syl_124 Syl_169
-2.390618	Syl_124 Syl_205
-2.85943	Syl_124 Syl_209
-2.390618	Syl_124 Syl_265
-2.291981	Syl_124 Syl_269
-2.586768	Syl_124 Syl_285
-2.586768	Syl_124 Syl_303
-1.534872	Syl_124 Syl_321
-2.390618	Syl_124 Syl_327
-1.455691	Syl_124 Syl_33
-2.586768	Syl_124 Syl_338
-2.586768	Syl_124 Syl_34
-1.631782	Syl_124 Syl_348
-2.85943	Syl_124 Syl_359
-2.85943	Syl_124 Syl_412
-2.85943	Syl_124 Syl_413
-2.85943	Syl_124 Syl_427
-1.564835	Syl_124 Syl_431
-2.85943	Syl_124 Syl_435
-2.291981	Syl_124 Syl_44
-2.85943	Syl_124 Syl_456
-2.85943	Syl_124 Syl_496
-2.291981	Syl_124 Syl_507
-2.18728	Syl_124 Syl_54
-2.85943	Syl_124 Syl_55
-2.85943	Syl_124 Syl_56
-2.85943	Syl_124 Syl_591
-1.388744	Syl_124 Syl_592
-2.85943	Syl_124 Syl_6
-2.85943	Syl_124 Syl_627
-2.291981	Syl_124 Syl_631
-2.586768	Syl_124 Syl_643
-2.85943	Syl_124 Syl_670
-1.077495	Syl_124 Syl_71
-2.586768	Syl_124 Syl_740
-2.85943	Syl_124 Syl_84
-2.586768	Syl_124 Syl_87
-0.7158996	Syl_125 </s>
-3.071192	Syl_125 Syl_11
-2.21244	Syl_125 Syl_12
-1.065393	Syl_125 Syl_125
-3.071192	Syl_125 Syl_130
-2.019635	Syl_125 Syl_14
-3.071192	Syl_125 Syl_148
-3.071192	Syl_125 Syl_155
-1.269513	Syl_125 Syl_16
-3.071192	Syl_125 Syl_168
-3.071192	Syl_125 Syl_173
-0.8328204	Syl_125 Syl_179
-3.071192	Syl_125 Syl_180
-3.071192	Syl_125 Syl_186
-3.071192	Syl_125 Syl_223
-2.602381	Syl_125 Syl_226
-2.798531	Syl_125 Syl_234
-2.798531	Syl_125 Syl_26
-2.602381	Syl_125 Syl_29
-1.881333	Syl_125 Syl_292
-3.071192	Syl_125 Syl_295
-2.798531	Syl_125 Syl_301
-3.071192	Syl_125 Syl_303
-2.503744	Syl_125 Syl_307
-2.798531	Syl_125 Syl_315
-2.798531	Syl_125 Syl_32
-2.602381	Syl_125 Syl_320
-2.602381	Syl_125 Syl_346
-3.071192	Syl_125 Syl_359
-3.071192	Syl_125 Syl_371
-3.071192	Syl_125 Syl_376
-3.071192	Syl_125 Syl_390
-2.602381	Syl_125 Syl_399
-2.798531	Syl_125 Syl_405
-1.843544	Syl_125 Syl_425
-1.808782	Syl_125 Syl_440
-3.071192	Syl_125 Syl_452
-3.071192	Syl_125 Syl_476
-3.071192	Syl_125 Syl_48
-2.798531	Syl_125 Syl_492
-2.798531	Syl_125 Syl_513
-2.798531	Syl_125 Syl_54
-2.798531	Syl_125 Syl_575
-1.843544	Syl_125 Syl_581
-1.922725	Syl_125 Syl_6
-3.071192	Syl_125 Syl_61
-2.602381	Syl_125 Syl_627
-2.798531	Syl_125 Syl_629
-3.071192	Syl_125 Syl_63
-3.071192	Syl_125 Syl_632
-1.250628	Syl_125 Syl_64
-1.843544	Syl_125 Syl_65
-2.503744	Syl_125 Syl_650
-1.643972	Syl_125 Syl_662
-1.621696	Syl_125 Syl_678
-1.580303	Syl_125 Syl_685
-2.798531	Syl_125 Syl_71
-3.071192	Syl_125 Syl_719
-3.071192	Syl_125 Syl_753
-2.798531	Syl_125 Syl_758
-1.808782	Syl_125 Syl_759
-1.843544	Syl_125 Syl_761
-3.071192	Syl_125 Syl_78
-2.798531	Syl_125 Syl_8
-3.071192	Syl_125 Syl_80
-2.798531	Syl_125 Syl_815
-2.798531	Syl_125 Syl_817
-1.241484	Syl_125 Syl_82
-2.602381	Syl_125 Syl_84
-1.968483	Syl_125 Syl_85
-3.071192	Syl_125 Syl_850
-1.289257	Syl_125 Syl_857
-3.071192	Syl_125 Syl_867
-2.798531	Syl_125 Syl_87
-3.071192	Syl_125 Syl_880
-3.071192	Syl_125 Syl_901
-1.843544	Syl_125 Syl_903
-2.798531	Syl_125 Syl_909
-3.071192	Syl_125 Syl_91
-2.602381	Syl_125 Syl_912
-3.071192	Syl_125 Syl_915
-3.071192	Syl_125 Syl_930
-3.071192	Syl_125 Syl_95
-0.4127405	Syl_126 </s>
-2.163607	Syl_126 Syl_10
-2.163607	Syl_126 Syl_100
-2.436269	Syl_126 Syl_126
-2.163607	Syl_126 Syl_130
-2.436269	Syl_126 Syl_143
-2.436269	Syl_126 Syl_168
-2.436269	Syl_126 Syl_169
-2.436269	Syl_126 Syl_205
-2.436269	Syl_126 Syl_229
-2.436269	Syl_126 Syl_253
-2.163607	Syl_126 Syl_306
-2.163607	Syl_126 Syl_31
-2.436269	Syl_126 Syl_321
-1.86882	Syl_126 Syl_33
-2.436269	Syl_126 Syl_374
-1.967457	Syl_126 Syl_394
-2.436269	Syl_126 Syl_405
-2.163607	Syl_126 Syl_406
-1.967457	Syl_126 Syl_408
-2.163607	Syl_126 Syl_456
-1.967457	Syl_126 Syl_458
-2.436269	Syl_126 Syl_513
-2.436269	Syl_126 Syl_601
-1.967457	Syl_126 Syl_63
-2.436269	Syl_126 Syl_64
-2.436269	Syl_126 Syl_759
-2.436269	Syl_126 Syl_773
-2.163607	Syl_126 Syl_775
-1.967457	Syl_126 Syl_82
-1.86882	Syl_126 Syl_84
-1.86882	Syl_126 Syl_85
-1.057353	Syl_126 Syl_855
-1.384712	Syl_126 Syl_859
-0.8406437	Syl_126 Syl_872
-1.967457	Syl_126 Syl_9
-2.163607	Syl_126 Syl_912
-1.058331	Syl_127 </s>
-0.7710894	Syl_127 Syl_10
-1.221058	Syl_127 Syl_11
-1.843469	Syl_127 Syl_124
-2.410918	Syl_127 Syl_127
-2.410918	Syl_127 Syl_205
-2.410918	Syl_127 Syl_34
-1.552165	Syl_127 Syl_378
-0.9614211	Syl_127 Syl_4
-1.738768	Syl_127 Syl_456
-2.138256	Syl_127 Syl_57
-2.410918	Syl_127 Syl_573
-1.18327	Syl_127 Syl_574
-2.410918	Syl_127 Syl_601
-1.942106	Syl_127 Syl_622
-1.058331	Syl_127 Syl_627
-2.138256	Syl_127 Syl_63
-2.410918	Syl_127 Syl_648
-2.410918	Syl_127 Syl_65
-2.138256	Syl_127 Syl_719
-0.7710894	Syl_127 Syl_74
-2.410918	Syl_127 Syl_756
-2.410918	Syl_127 Syl_758
-2.410918	Syl_127 Syl_766
-2.410918	Syl_127 Syl_812
-2.138256	Syl_127 Syl_85
-2.138256	Syl_127 Syl_872
-2.138256	Syl_127 Syl_88
-2.410918	Syl_127 Syl_898
-2.410918	Syl_127 Syl_901
-1.843469	Syl_127 Syl_92
-1.855176	Syl_128 </s>
-1.855176	Syl_128 Syl_10
-1.953813	Syl_128 Syl_11
-2.422625	Syl_128 Syl_161
-2.422625	Syl_128 Syl_200
-2.422625	Syl_128 Syl_205
-2.149963	Syl_128 Syl_207
-2.422625	Syl_128 Syl_229
-0.7970366	Syl_128 Syl_235
-2.422625	Syl_128 Syl_265
-2.422625	Syl_128 Syl_300
-0.3876671	Syl_128 Syl_33
-1.274158	Syl_128 Syl_347
-2.149963	Syl_128 Syl_351
-1.42906	Syl_128 Syl_371
-2.149963	Syl_128 Syl_4
-1.563872	Syl_128 Syl_406
-1.274158	Syl_128 Syl_417
-2.422625	Syl_128 Syl_429
-2.422625	Syl_128 Syl_47
-2.422625	Syl_128 Syl_51
-1.750475	Syl_128 Syl_513
-2.422625	Syl_128 Syl_53
-2.422625	Syl_128 Syl_594
-2.149963	Syl_128 Syl_601
-2.422625	Syl_128 Syl_63
-1.371068	Syl_128 Syl_64
-1.855176	Syl_128 Syl_70
-2.422625	Syl_128 Syl_753
-2.422625	Syl_128 Syl_872
-0.1624991	Syl_129 </s>
-1.091918	Syl_129 Syl_15
-2.386513	Syl_129 Syl_175
-1.158865	Syl_129 Syl_26
-2.386513	Syl_129 Syl_279
-1.917701	Syl_129 Syl_33
-1.52776	Syl_129 Syl_337
-1.714363	Syl_129 Syl_4
-2.113851	Syl_129 Syl_446
-2.386513	Syl_129 Syl_53
-2.386513	Syl_129 Syl_582
-2.386513	Syl_129 Syl_848
-1.52776	Syl_129 Syl_89
-0.4707811	Syl_13 </s>
-1.456845	Syl_13 Syl_100
-2.415254	Syl_13 Syl_116
-2.884066	Syl_13 Syl_12
-2.884066	Syl_13 Syl_126
-0.7443728	Syl_13 Syl_13
-2.211916	Syl_13 Syl_138
-1.621656	Syl_13 Syl_16
-1.179296	Syl_13 Syl_162
-2.611404	Syl_13 Syl_18
-2.211916	Syl_13 Syl_188
-2.884066	Syl_13 Syl_190
-2.884066	Syl_13 Syl_198
-2.611404	Syl_13 Syl_2
-2.884066	Syl_13 Syl_20
-2.611404	Syl_13 Syl_200
-2.415254	Syl_13 Syl_203
-2.025313	Syl_13 Syl_229
-2.316617	Syl_13 Syl_244
-2.316617	Syl_13 Syl_270
-2.884066	Syl_13 Syl_301
-2.884066	Syl_13 Syl_303
-2.884066	Syl_13 Syl_307
-2.884066	Syl_13 Syl_315
-2.611404	Syl_13 Syl_327
-2.316617	Syl_13 Syl_33
-2.611404	Syl_13 Syl_333
-2.884066	Syl_13 Syl_368
-1.735599	Syl_13 Syl_371
-2.884066	Syl_13 Syl_384
-2.611404	Syl_13 Syl_395
-2.316617	Syl_13 Syl_402
-2.884066	Syl_13 Syl_405
-2.884066	Syl_13 Syl_419
-2.316617	Syl_13 Syl_429
-2.884066	Syl_13 Syl_438
-2.611404	Syl_13 Syl_474
-2.884066	Syl_13 Syl_504
-2.884066	Syl_13 Syl_507
-2.316617	Syl_13 Syl_51
-2.611404	Syl_13 Syl_54
-2.884066	Syl_13 Syl_594
-2.884066	Syl_13 Syl_597
-2.415254	Syl_13 Syl_6
-2.884066	Syl_13 Syl_60
-2.611404	Syl_13 Syl_601
-2.884066	Syl_13 Syl_609
-2.611404	Syl_13 Syl_63
-1.054358	Syl_13 Syl_65
-2.316617	Syl_13 Syl_672
-2.884066	Syl_13 Syl_7
-2.316617	Syl_13 Syl_74
-2.884066	Syl_13 Syl_747
-2.611404	Syl_13 Syl_812
-2.884066	Syl_13 Syl_842
-1.50515	Syl_13 Syl_868
-2.884066	Syl_13 Syl_875
-2.884066	Syl_13 Syl_877
-2.884066	Syl_13 Syl_878
-2.415254	Syl_13 Syl_879
-2.611404	Syl_13 Syl_883
-2.884066	Syl_13 Syl_898
-2.611404	Syl_13 Syl_906
-2.884066	Syl_13 Syl_914
-1.781356	Syl_13 Syl_926
-0.1839289	Syl_130 </s>
-2.284528	Syl_130 Syl_130
-1.72903	Syl_130 Syl_18
-1.72903	Syl_130 Syl_24
-2.684016	Syl_130 Syl_31
-1.662083	Syl_130 Syl_312
-2.684016	Syl_130 Syl_374
-1.766818	Syl_130 Syl_375
-2.684016	Syl_130 Syl_405
-2.956678	Syl_130 Syl_435
-2.956678	Syl_130 Syl_445
-1.184962	Syl_130 Syl_446
-2.389229	Syl_130 Syl_47
-1.428	Syl_130 Syl_488
-1.577762	Syl_130 Syl_54
-2.284528	Syl_130 Syl_59
-2.097925	Syl_130 Syl_6
-2.956678	Syl_130 Syl_629
-2.956678	Syl_130 Syl_63
-2.956678	Syl_130 Syl_653
-2.284528	Syl_130 Syl_786
-1.067848	Syl_130 Syl_856
-0.2670109	Syl_131 </s>
-2.012382	Syl_131 Syl_131
-1.907681	Syl_131 Syl_168
-2.579831	Syl_131 Syl_224
-2.012382	Syl_131 Syl_271
-2.579831	Syl_131 Syl_312
-2.579831	Syl_131 Syl_347
-2.579831	Syl_131 Syl_374
-2.307169	Syl_131 Syl_410
-2.111019	Syl_131 Syl_417
-2.307169	Syl_131 Syl_467
-2.579831	Syl_131 Syl_488
-2.579831	Syl_131 Syl_50
-2.579831	Syl_131 Syl_549
-2.307169	Syl_131 Syl_56
-2.579831	Syl_131 Syl_591
-2.579831	Syl_131 Syl_60
-1.907681	Syl_131 Syl_61
-1.130334	Syl_131 Syl_63
-1.033424	Syl_131 Syl_66
-1.227244	Syl_131 Syl_73
-1.109144	Syl_131 Syl_742
-2.579831	Syl_131 Syl_837
-2.307169	Syl_131 Syl_875
-2.307169	Syl_131 Syl_898
-2.579831	Syl_131 Syl_90
-2.579831	Syl_131 Syl_913
-1.379407	Syl_132 </s>
-1.484108	Syl_132 Syl_1
-1.057992	Syl_132 Syl_10
-1.778895	Syl_132 Syl_108
-1.379407	Syl_132 Syl_163
-1.192804	Syl_132 Syl_285
-1.484108	Syl_132 Syl_429
-1.582745	Syl_132 Syl_438
-1.778895	Syl_132 Syl_54
-2.051557	Syl_132 Syl_56
-0.9488475	Syl_132 Syl_63
-1.192804	Syl_132 Syl_71
-0.4717262	Syl_132 Syl_768
-0.60206	Syl_133 </s>
-1.791919	Syl_133 Syl_133
-0.6434527	Syl_133 Syl_306
-0.3424227	Syl_133 Syl_47
-1.791919	Syl_133 Syl_74
-1.791919	Syl_133 Syl_898
-0.5532411	Syl_134 </s>
-2.368566	Syl_134 Syl_123
-2.368566	Syl_134 Syl_134
-2.172415	Syl_134 Syl_166
-2.641227	Syl_134 Syl_176
-2.641227	Syl_134 Syl_189
-2.641227	Syl_134 Syl_232
-2.641227	Syl_134 Syl_237
-2.641227	Syl_134 Syl_246
-2.641227	Syl_134 Syl_292
-2.641227	Syl_134 Syl_299
-2.641227	Syl_134 Syl_306
-1.969078	Syl_134 Syl_33
-1.647662	Syl_134 Syl_331
-2.641227	Syl_134 Syl_333
-2.641227	Syl_134 Syl_341
-2.368566	Syl_134 Syl_377
-0.5582619	Syl_134 Syl_378
-2.641227	Syl_134 Syl_379
-2.641227	Syl_134 Syl_400
-2.368566	Syl_134 Syl_454
-2.073779	Syl_134 Syl_456
-2.641227	Syl_134 Syl_457
-0.8025643	Syl_134 Syl_475
-2.641227	Syl_134 Syl_476
-1.58967	Syl_134 Syl_48
-2.368566	Syl_134 Syl_484
-2.641227	Syl_134 Syl_575
-2.641227	Syl_134 Syl_594
-1.969078	Syl_134 Syl_648
-1.782475	Syl_134 Syl_7
-2.641227	Syl_134 Syl_71
-2.368566	Syl_134 Syl_744
-2.641227	Syl_134 Syl_758
-1.237488	Syl_134 Syl_787
-2.641227	Syl_134 Syl_82
-2.641227	Syl_134 Syl_853
-2.641227	Syl_134 Syl_89
-0.01909294	Syl_135 </s>
-2.41798	Syl_135 Syl_125
-2.41798	Syl_135 Syl_179
-2.41798	Syl_135 Syl_313
-2.41798	Syl_135 Syl_33
-1.949168	Syl_135 Syl_632
-0.1838467	Syl_136 </s>
-2.111218	Syl_136 Syl_10
-1.251446	Syl_136 Syl_300
-0.9987208	Syl_136 Syl_33
-2.406005	Syl_136 Syl_341
-1.685102	Syl_136 Syl_353
-2.678667	Syl_136 Syl_365
-2.678667	Syl_136 Syl_404
-2.678667	Syl_136 Syl_416
-2.678667	Syl_136 Syl_59
-2.678667	Syl_136 Syl_591
-2.111218	Syl_136 Syl_622
-0.9391351	Syl_136 Syl_773
-2.678667	Syl_136 Syl_83
-2.406005	Syl_136 Syl_908
-2.406005	Syl_136 Syl_917
-0.2879347	Syl_137 </s>
-1.213075	Syl_137 Syl_179
-2.440723	Syl_137 Syl_224
-1.447158	Syl_137 Syl_238
-1.873274	Syl_137 Syl_289
-2.168061	Syl_137 Syl_318
-2.168061	Syl_137 Syl_374
-1.447158	Syl_137 Syl_41
-0.6201582	Syl_137 Syl_435
-2.440723	Syl_137 Syl_599
-2.440723	Syl_137 Syl_776
-1.768573	Syl_137 Syl_780
-2.168061	Syl_137 Syl_860
-2.440723	Syl_137 Syl_878
-1.971911	Syl_137 Syl_920
-0.3703565	Syl_138 </s>
-2.410918	Syl_138 Syl_0
-1.308209	Syl_138 Syl_13
-2.138256	Syl_138 Syl_147
-2.138256	Syl_138 Syl_179
-1.738768	Syl_138 Syl_195
-2.410918	Syl_138 Syl_199
-1.843469	Syl_138 Syl_203
-1.843469	Syl_138 Syl_234
-2.410918	Syl_138 Syl_259
-2.410918	Syl_138 Syl_278
-2.138256	Syl_138 Syl_300
-2.410918	Syl_138 Syl_304
-2.138256	Syl_138 Syl_319
-1.417353	Syl_138 Syl_33
-2.138256	Syl_138 Syl_337
-1.308209	Syl_138 Syl_362
-1.843469	Syl_138 Syl_387
-2.410918	Syl_138 Syl_4
-1.308209	Syl_138 Syl_436
-1.738768	Syl_138 Syl_456
-2.410918	Syl_138 Syl_461
-2.138256	Syl_138 Syl_54
-2.410918	Syl_138 Syl_543
-1.843469	Syl_138 Syl_544
-2.410918	Syl_138 Syl_545
-1.116323	Syl_138 Syl_546
-2.410918	Syl_138 Syl_6
-1.221058	Syl_138 Syl_7
-2.410918	Syl_138 Syl_759
-2.410918	Syl_138 Syl_901
-0.2913427	Syl_139 </s>
-2.272318	Syl_139 Syl_13
-0.6187016	Syl_139 Syl_203
-2.272318	Syl_139 Syl_250
-2.272318	Syl_139 Syl_3
-0.6467304	Syl_139 Syl_9
-0.4100606	Syl_14 </s>
-2.612201	Syl_14 Syl_0
-2.884863	Syl_14 Syl_11
-2.317415	Syl_14 Syl_116
-2.612201	Syl_14 Syl_130
-0.7235593	Syl_14 Syl_14
-2.317415	Syl_14 Syl_141
-2.612201	Syl_14 Syl_15
-2.884863	Syl_14 Syl_161
-2.612201	Syl_14 Syl_168
-2.884863	Syl_14 Syl_178
-2.026111	Syl_14 Syl_179
-2.416052	Syl_14 Syl_192
-2.884863	Syl_14 Syl_207
-2.416052	Syl_14 Syl_225
-2.612201	Syl_14 Syl_230
-2.884863	Syl_14 Syl_232
-2.884863	Syl_14 Syl_255
-2.884863	Syl_14 Syl_27
-2.884863	Syl_14 Syl_302
-1.695004	Syl_14 Syl_325
-1.204918	Syl_14 Syl_33
-2.612201	Syl_14 Syl_337
-2.612201	Syl_14 Syl_351
-2.612201	Syl_14 Syl_352
-2.884863	Syl_14 Syl_361
-2.884863	Syl_14 Syl_389
-2.612201	Syl_14 Syl_401
-2.612201	Syl_14 Syl_405
-2.612201	Syl_14 Syl_409
-1.123613	Syl_14 Syl_42
-2.884863	Syl_14 Syl_465
-1.374669	Syl_14 Syl_492
-1.657215	Syl_14 Syl_5
-2.612201	Syl_14 Syl_51
-2.884863	Syl_14 Syl_516
-2.026111	Syl_14 Syl_54
-2.884863	Syl_14 Syl_548
-2.884863	Syl_14 Syl_575
-2.884863	Syl_14 Syl_581
-2.884863	Syl_14 Syl_61
-2.884863	Syl_14 Syl_627
-2.026111	Syl_14 Syl_664
-2.884863	Syl_14 Syl_686
-2.612201	Syl_14 Syl_697
-1.782154	Syl_14 Syl_71
-2.884863	Syl_14 Syl_758
-2.416052	Syl_14 Syl_759
-2.884863	Syl_14 Syl_820
-2.612201	Syl_14 Syl_857
-2.884863	Syl_14 Syl_876
-2.612201	Syl_14 Syl_88
-2.884863	Syl_14 Syl_883
-2.884863	Syl_14 Syl_9
-1.891298	Syl_14 Syl_91
-2.317415	Syl_14 Syl_920
-2.884863	Syl_14 Syl_95
-1.064874	Syl_140 </s>
-2.468613	Syl_140 Syl_232
-2.468613	Syl_140 Syl_33
-2.468613	Syl_140 Syl_36
-0.4876374	Syl_140 Syl_378
-0.7073624	Syl_140 Syl_379
-2.468613	Syl_140 Syl_429
-1.796464	Syl_140 Syl_435
-2.468613	Syl_140 Syl_438
-2.195951	Syl_140 Syl_452
-0.8577483	Syl_140 Syl_476
-2.468613	Syl_140 Syl_484
-2.468613	Syl_140 Syl_496
-2.468613	Syl_140 Syl_51
-2.195951	Syl_140 Syl_54
-1.796464	Syl_140 Syl_594
-1.116026	Syl_140 Syl_71
-1.999801	Syl_140 Syl_759
-1.278754	Syl_140 Syl_854
-0.5113691	Syl_141 </s>
-1.905301	Syl_141 Syl_125
-2.472749	Syl_141 Syl_135
-1.324282	Syl_141 Syl_141
-2.200088	Syl_141 Syl_166
-1.905301	Syl_141 Syl_168
-1.613997	Syl_141 Syl_179
-2.472749	Syl_141 Syl_20
-2.472749	Syl_141 Syl_203
-1.479184	Syl_141 Syl_205
-2.472749	Syl_141 Syl_229
-2.472749	Syl_141 Syl_270
-2.472749	Syl_141 Syl_300
-1.905301	Syl_141 Syl_33
-1.905301	Syl_141 Syl_382
-1.37004	Syl_141 Syl_387
-1.28289	Syl_141 Syl_405
-2.472749	Syl_141 Syl_439
-0.5389526	Syl_141 Syl_48
-2.472749	Syl_141 Syl_504
-2.472749	Syl_141 Syl_54
-1.905301	Syl_141 Syl_71
-1.905301	Syl_141 Syl_720
-1.905301	Syl_141 Syl_742
-2.200088	Syl_141 Syl_756
-2.003938	Syl_141 Syl_766
-2.472749	Syl_141 Syl_775
-2.200088	Syl_141 Syl_818
-2.472749	Syl_141 Syl_915
-0.5278996	Syl_142 </s>
-2.043416	Syl_142 Syl_13
-2.610865	Syl_142 Syl_14
-1.383217	Syl_142 Syl_142
-1.559308	Syl_142 Syl_166
-1.508155	Syl_142 Syl_177
-2.610865	Syl_142 Syl_212
-0.9710363	Syl_142 Syl_229
-2.610865	Syl_142 Syl_262
-2.610865	Syl_142 Syl_280
-2.610865	Syl_142 Syl_291
-1.559308	Syl_142 Syl_3
-0.9710363	Syl_142 Syl_300
-1.383217	Syl_142 Syl_33
-2.610865	Syl_142 Syl_331
-2.610865	Syl_142 Syl_435
-2.610865	Syl_142 Syl_45
-1.258278	Syl_142 Syl_46
-2.610865	Syl_142 Syl_592
-1.559308	Syl_142 Syl_6
-2.610865	Syl_142 Syl_621
-1.6173	Syl_142 Syl_627
-0.7996402	Syl_142 Syl_839
-2.043416	Syl_142 Syl_96
-1.894474	Syl_143 </s>
-2.320591	Syl_143 Syl_106
-2.615377	Syl_143 Syl_11
-1.208093	Syl_143 Syl_113
-2.888039	Syl_143 Syl_116
-2.888039	Syl_143 Syl_12
-1.660391	Syl_143 Syl_123
-2.21589	Syl_143 Syl_143
-2.888039	Syl_143 Syl_147
-2.888039	Syl_143 Syl_155
-1.195504	Syl_143 Syl_16
-2.888039	Syl_143 Syl_166
-2.888039	Syl_143 Syl_168
-2.419228	Syl_143 Syl_180
-2.615377	Syl_143 Syl_186
-1.460819	Syl_143 Syl_223
-2.615377	Syl_143 Syl_234
-1.277174	Syl_143 Syl_263
-0.9134976	Syl_143 Syl_27
-2.419228	Syl_143 Syl_279
-2.888039	Syl_143 Syl_303
-2.888039	Syl_143 Syl_305
-2.888039	Syl_143 Syl_306
-2.888039	Syl_143 Syl_311
-2.888039	Syl_143 Syl_320
-2.320591	Syl_143 Syl_322
-2.888039	Syl_143 Syl_33
-1.377844	Syl_143 Syl_331
-2.320591	Syl_143 Syl_332
-2.888039	Syl_143 Syl_34
-2.888039	Syl_143 Syl_344
-2.615377	Syl_143 Syl_358
-2.888039	Syl_143 Syl_36
-2.888039	Syl_143 Syl_362
-2.419228	Syl_143 Syl_375
-2.888039	Syl_143 Syl_376
-1.69818	Syl_143 Syl_394
-2.615377	Syl_143 Syl_4
-2.21589	Syl_143 Syl_43
-2.615377	Syl_143 Syl_480
-1.739572	Syl_143 Syl_485
-2.320591	Syl_143 Syl_488
-2.419228	Syl_143 Syl_489
-1.234422	Syl_143 Syl_493
-2.615377	Syl_143 Syl_494
-2.615377	Syl_143 Syl_497
-2.615377	Syl_143 Syl_51
-1.894474	Syl_143 Syl_513
-2.615377	Syl_143 Syl_552
-2.888039	Syl_143 Syl_59
-2.419228	Syl_143 Syl_592
-1.076815	Syl_143 Syl_593
-1.894474	Syl_143 Syl_594
-2.029286	Syl_143 Syl_597
-2.21589	Syl_143 Syl_6
-2.615377	Syl_143 Syl_603
-2.888039	Syl_143 Syl_61
-2.320591	Syl_143 Syl_631
-2.888039	Syl_143 Syl_632
-2.615377	Syl_143 Syl_662
-2.888039	Syl_143 Syl_664
-2.888039	Syl_143 Syl_67
-2.888039	Syl_143 Syl_670
-2.029286	Syl_143 Syl_678
-2.029286	Syl_143 Syl_685
-1.894474	Syl_143 Syl_774
-1.460819	Syl_143 Syl_78
-1.262451	Syl_143 Syl_817
-2.888039	Syl_143 Syl_838
-2.615377	Syl_143 Syl_86
-1.234422	Syl_143 Syl_9
-2.888039	Syl_143 Syl_912
-2.615377	Syl_143 Syl_92
-2.888039	Syl_143 Syl_96
-0.1947617	Syl_144 </s>
-1.88637	Syl_144 Syl_0
-2.181156	Syl_144 Syl_113
-1.074902	Syl_144 Syl_144
-2.453818	Syl_144 Syl_169
-1.985007	Syl_144 Syl_205
-2.453818	Syl_144 Syl_276
-2.181156	Syl_144 Syl_312
-2.181156	Syl_144 Syl_324
-2.453818	Syl_144 Syl_360
-1.88637	Syl_144 Syl_382
-1.985007	Syl_144 Syl_44
-1.402261	Syl_144 Syl_455
-2.453818	Syl_144 Syl_46
-2.181156	Syl_144 Syl_483
-1.88637	Syl_144 Syl_503
-1.263959	Syl_144 Syl_621
-2.453818	Syl_144 Syl_667
-2.453818	Syl_144 Syl_719
-2.181156	Syl_144 Syl_727
-1.985007	Syl_144 Syl_759
-0.161983	Syl_145 </s>
-1.501623	Syl_145 Syl_11
-1.901111	Syl_145 Syl_138
-1.901111	Syl_145 Syl_145
-2.173773	Syl_145 Syl_297
-2.173773	Syl_145 Syl_309
-2.173773	Syl_145 Syl_310
-0.8492146	Syl_145 Syl_331
-2.173773	Syl_145 Syl_403
-2.173773	Syl_145 Syl_409
-2.173773	Syl_145 Syl_485
-2.173773	Syl_145 Syl_668
-2.173773	Syl_145 Syl_763
-2.173773	Syl_145 Syl_930
-1.276486	Syl_146 </s>
-2.135239	Syl_146 Syl_136
-1.141674	Syl_146 Syl_378
-0.5888317	Syl_146 Syl_379
-2.135239	Syl_146 Syl_452
-0.5396137	Syl_146 Syl_476
-2.135239	Syl_146 Syl_51
-1.666427	Syl_146 Syl_54
-1.141674	Syl_146 Syl_71
-0.8406437	Syl_146 Syl_759
-1.56779	Syl_146 Syl_854
-0.4931656	Syl_147 </s>
-2.161362	Syl_147 Syl_10
-2.434024	Syl_147 Syl_11
-2.434024	Syl_147 Syl_116
-2.161362	Syl_147 Syl_15
-1.761875	Syl_147 Syl_182
-2.434024	Syl_147 Syl_192
-2.434024	Syl_147 Syl_193
-1.206376	Syl_147 Syl_194
-2.434024	Syl_147 Syl_224
-2.161362	Syl_147 Syl_250
-1.965212	Syl_147 Syl_256
-2.434024	Syl_147 Syl_260
-2.434024	Syl_147 Syl_297
-1.965212	Syl_147 Syl_304
-2.434024	Syl_147 Syl_307
-2.434024	Syl_147 Syl_310
-2.161362	Syl_147 Syl_323
-2.161362	Syl_147 Syl_340
-1.761875	Syl_147 Syl_356
-2.434024	Syl_147 Syl_371
-2.434024	Syl_147 Syl_379
-2.434024	Syl_147 Syl_384
-0.9845273	Syl_147 Syl_425
-2.434024	Syl_147 Syl_594
-0.7670434	Syl_147 Syl_60
-2.161362	Syl_147 Syl_678
-2.434024	Syl_147 Syl_849
-1.006804	Syl_147 Syl_853
-2.434024	Syl_147 Syl_878
-2.161362	Syl_147 Syl_909
-0.8027737	Syl_148 </s>
-2.25227	Syl_148 Syl_1
-1.580121	Syl_148 Syl_378
-0.6566457	Syl_148 Syl_379
-2.25227	Syl_148 Syl_435
-0.6566457	Syl_148 Syl_452
-0.8996837	Syl_148 Syl_476
-1.062411	Syl_148 Syl_51
-1.979609	Syl_148 Syl_54
-1.393518	Syl_148 Syl_71
-1.149561	Syl_148 Syl_854
-0.5684514	Syl_149 </s>
-2.690046	Syl_149 Syl_1
-2.690046	Syl_149 Syl_100
-2.417384	Syl_149 Syl_108
-2.221234	Syl_149 Syl_11
-2.690046	Syl_149 Syl_125
-1.126606	Syl_149 Syl_149
-1.462398	Syl_149 Syl_15
-2.690046	Syl_149 Syl_153
-2.690046	Syl_149 Syl_162
-2.417384	Syl_149 Syl_166
-2.690046	Syl_149 Syl_167
-2.417384	Syl_149 Syl_169
-1.587337	Syl_149 Syl_174
-2.690046	Syl_149 Syl_188
-1.094421	Syl_149 Syl_205
-2.417384	Syl_149 Syl_209
-2.122597	Syl_149 Syl_234
-2.417384	Syl_149 Syl_247
-2.122597	Syl_149 Syl_266
-2.690046	Syl_149 Syl_27
-2.122597	Syl_149 Syl_28
-2.690046	Syl_149 Syl_304
-2.417384	Syl_149 Syl_306
-2.690046	Syl_149 Syl_307
-2.690046	Syl_149 Syl_312
-2.122597	Syl_149 Syl_322
-2.690046	Syl_149 Syl_323
-2.690046	Syl_149 Syl_330
-2.690046	Syl_149 Syl_331
-2.690046	Syl_149 Syl_332
-2.122597	Syl_149 Syl_337
-2.122597	Syl_149 Syl_340
-2.690046	Syl_149 Syl_341
-2.690046	Syl_149 Syl_381
-2.122597	Syl_149 Syl_382
-2.690046	Syl_149 Syl_391
-1.240549	Syl_149 Syl_394
-2.690046	Syl_149 Syl_402
-2.417384	Syl_149 Syl_403
-2.122597	Syl_149 Syl_405
-2.017897	Syl_149 Syl_429
-2.690046	Syl_149 Syl_435
-2.690046	Syl_149 Syl_439
-2.122597	Syl_149 Syl_440
-2.221234	Syl_149 Syl_445
-1.462398	Syl_149 Syl_446
-2.417384	Syl_149 Syl_453
-2.690046	Syl_149 Syl_456
-2.690046	Syl_149 Syl_458
-2.221234	Syl_149 Syl_476
-2.690046	Syl_149 Syl_492
-2.690046	Syl_149 Syl_500
-2.690046	Syl_149 Syl_505
-2.690046	Syl_149 Syl_525
-2.690046	Syl_149 Syl_53
-2.690046	Syl_149 Syl_56
-2.690046	Syl_149 Syl_61
-2.690046	Syl_149 Syl_622
-2.417384	Syl_149 Syl_626
-2.221234	Syl_149 Syl_63
-2.122597	Syl_149 Syl_672
-2.690046	Syl_149 Syl_684
-2.690046	Syl_149 Syl_686
-2.690046	Syl_149 Syl_693
-2.690046	Syl_149 Syl_722
-2.417384	Syl_149 Syl_73
-2.122597	Syl_149 Syl_732
-2.690046	Syl_149 Syl_742
-2.017897	Syl_149 Syl_752
-2.690046	Syl_149 Syl_769
-2.221234	Syl_149 Syl_78
-2.690046	Syl_149 Syl_780
-2.417384	Syl_149 Syl_8
-2.690046	Syl_149 Syl_80
-2.417384	Syl_149 Syl_810
-2.690046	Syl_149 Syl_813
-1.587337	Syl_149 Syl_82
-2.690046	Syl_149 Syl_854
-2.417384	Syl_149 Syl_86
-2.417384	Syl_149 Syl_87
-2.690046	Syl_149 Syl_89
-2.690046	Syl_149 Syl_9
-2.690046	Syl_149 Syl_902
-2.690046	Syl_149 Syl_94
-2.690046	Syl_149 Syl_95
-2.690046	Syl_149 Syl_96
-0.4726064	Syl_15 </s>
-1.8907	Syl_15 Syl_10
-3.243287	Syl_15 Syl_105
-2.571138	Syl_15 Syl_116
-2.774476	Syl_15 Syl_130
-1.772601	Syl_15 Syl_15
-2.675839	Syl_15 Syl_162
-2.774476	Syl_15 Syl_169
-2.571138	Syl_15 Syl_179
-3.243287	Syl_15 Syl_190
-2.015639	Syl_15 Syl_203
-1.733093	Syl_15 Syl_205
-1.617699	Syl_15 Syl_208
-1.362427	Syl_15 Syl_221
-2.384535	Syl_15 Syl_224
-2.19173	Syl_15 Syl_229
-2.571138	Syl_15 Syl_230
-3.243287	Syl_15 Syl_259
-3.243287	Syl_15 Syl_268
-1.663457	Syl_15 Syl_27
-2.970625	Syl_15 Syl_277
-1.503756	Syl_15 Syl_278
-2.774476	Syl_15 Syl_28
-1.432063	Syl_15 Syl_280
-2.970625	Syl_15 Syl_303
-2.249722	Syl_15 Syl_304
-2.384535	Syl_15 Syl_305
-3.243287	Syl_15 Syl_306
-2.970625	Syl_15 Syl_307
-2.970625	Syl_15 Syl_309
-3.243287	Syl_15 Syl_31
-2.140578	Syl_15 Syl_315
-2.140578	Syl_15 Syl_33
-2.970625	Syl_15 Syl_333
-2.970625	Syl_15 Syl_353
-2.774476	Syl_15 Syl_361
-2.774476	Syl_15 Syl_388
-2.774476	Syl_15 Syl_39
-0.8070186	Syl_15 Syl_391
-3.243287	Syl_15 Syl_393
-1.948692	Syl_15 Syl_394
-2.774476	Syl_15 Syl_395
-2.015639	Syl_15 Syl_403
-2.09482	Syl_15 Syl_404
-2.970625	Syl_15 Syl_405
-2.970625	Syl_15 Syl_432
-2.970625	Syl_15 Syl_438
-3.243287	Syl_15 Syl_443
-3.243287	Syl_15 Syl_451
-1.839548	Syl_15 Syl_457
-3.243287	Syl_15 Syl_458
-2.970625	Syl_15 Syl_464
-1.816067	Syl_15 Syl_465
-2.774476	Syl_15 Syl_483
-3.243287	Syl_15 Syl_486
-3.243287	Syl_15 Syl_488
-3.243287	Syl_15 Syl_496
-3.243287	Syl_15 Syl_499
-3.243287	Syl_15 Syl_51
-1.839548	Syl_15 Syl_54
-3.243287	Syl_15 Syl_595
-3.243287	Syl_15 Syl_601
-2.970625	Syl_15 Syl_61
-1.576306	Syl_15 Syl_628
-2.970625	Syl_15 Syl_630
-3.243287	Syl_15 Syl_64
-2.140578	Syl_15 Syl_692
-3.243287	Syl_15 Syl_697
-2.384535	Syl_15 Syl_723
-2.970625	Syl_15 Syl_732
-3.243287	Syl_15 Syl_753
-1.79379	Syl_15 Syl_780
-1.482036	Syl_15 Syl_784
-3.243287	Syl_15 Syl_790
-3.243287	Syl_15 Syl_840
-3.243287	Syl_15 Syl_847
-2.675839	Syl_15 Syl_85
-3.243287	Syl_15 Syl_87
-2.970625	Syl_15 Syl_878
-2.015639	Syl_15 Syl_9
-3.243287	Syl_15 Syl_902
-0.6219548	Syl_150 </s>
-1.974542	Syl_150 Syl_10
-1.70188	Syl_150 Syl_107
-1.974542	Syl_150 Syl_109
-0.5038555	Syl_150 Syl_167
-1.70188	Syl_150 Syl_169
-1.407093	Syl_150 Syl_187
-1.974542	Syl_150 Syl_205
-1.974542	Syl_150 Syl_31
-1.974542	Syl_150 Syl_315
-1.70188	Syl_150 Syl_374
-1.974542	Syl_150 Syl_431
-1.974542	Syl_150 Syl_44
-1.974542	Syl_150 Syl_492
-1.974542	Syl_150 Syl_525
-1.974542	Syl_150 Syl_55
-1.70188	Syl_150 Syl_56
-1.974542	Syl_150 Syl_71
-1.974542	Syl_150 Syl_742
-1.974542	Syl_150 Syl_746
-1.974542	Syl_150 Syl_842
-1.974542	Syl_150 Syl_85
-1.974542	Syl_150 Syl_869
-1.407093	Syl_150 Syl_9
-0.5502284	Syl_151 </s>
-2.204185	Syl_151 Syl_11
-2.476846	Syl_151 Syl_149
-2.008035	Syl_151 Syl_164
-2.476846	Syl_151 Syl_187
-2.204185	Syl_151 Syl_189
-1.909398	Syl_151 Syl_22
-2.204185	Syl_151 Syl_247
-2.476846	Syl_151 Syl_250
-1.483282	Syl_151 Syl_254
-1.909398	Syl_151 Syl_273
-2.476846	Syl_151 Syl_285
-2.476846	Syl_151 Syl_297
-2.476846	Syl_151 Syl_334
-2.476846	Syl_151 Syl_339
-2.476846	Syl_151 Syl_354
-2.204185	Syl_151 Syl_361
-2.204185	Syl_151 Syl_368
-2.204185	Syl_151 Syl_4
-2.476846	Syl_151 Syl_41
-2.476846	Syl_151 Syl_410
-2.476846	Syl_151 Syl_442
-2.476846	Syl_151 Syl_443
-1.618094	Syl_151 Syl_445
-0.6949111	Syl_151 Syl_464
-0.8812216	Syl_151 Syl_485
